{"learner":{"attributes":{"scikit_learn":"{\"_estimator_type\": \"classifier\"}"},"feature_names":[],"feature_types":[],"gradient_booster":{"model":{"cats":{"enc":[],"feature_segments":[],"sorted_idx":[]},"gbtree_model_param":{"num_parallel_tree":"1","num_trees":"200"},"iteration_indptr":[0,1,2,3,4,5,6,7,8,9,10,11,12,13,14,15,16,17,18,19,20,21,22,23,24,25,26,27,28,29,30,31,32,33,34,35,36,37,38,39,40,41,42,43,44,45,46,47,48,49,50,51,52,53,54,55,56,57,58,59,60,61,62,63,64,65,66,67,68,69,70,71,72,73,74,75,76,77,78,79,80,81,82,83,84,85,86,87,88,89,90,91,92,93,94,95,96,97,98,99,100,101,102,103,104,105,106,107,108,109,110,111,112,113,114,115,116,117,118,119,120,121,122,123,124,125,126,127,128,129,130,131,132,133,134,135,136,137,138,139,140,141,142,143,144,145,146,147,148,149,150,151,152,153,154,155,156,157,158,159,160,161,162,163,164,165,166,167,168,169,170,171,172,173,174,175,176,177,178,179,180,181,182,183,184,185,186,187,188,189,190,191,192,193,194,195,196,197,198,199,200],"tree_info":[0,0,0,0,0,0,0,0,0,0,0,0,0,0,0,0,0,0,0,0,0,0,0,0,0,0,0,0,0,0,0,0,0,0,0,0,0,0,0,0,0,0,0,0,0,0,0,0,0,0,0,0,0,0,0,0,0,0,0,0,0,0,0,0,0,0,0,0,0,0,0,0,0,0,0,0,0,0,0,0,0,0,0,0,0,0,0,0,0,0,0,0,0,0,0,0,0,0,0,0,0,0,0,0,0,0,0,0,0,0,0,0,0,0,0,0,0,0,0,0,0,0,0,0,0,0,0,0,0,0,0,0,0,0,0,0,0,0,0,0,0,0,0,0,0,0,0,0,0,0,0,0,0,0,0,0,0,0,0,0,0,0,0,0,0,0,0,0,0,0,0,0,0,0,0,0,0,0,0,0,0,0,0,0,0,0,0,0,0,0,0,0,0,0,0,0,0,0,0,0],"trees":[{"base_weights":[5.2935965E-2,1.5504911E0,-8.733746E-2,1.13679945E-1,7.193037E-1,1.5928527E0,2.1318057E-1,8.8557236E-2,1.5906768E-3,2.2428653E-3,6.414222E-2],"categories":[],"categories_nodes":[],"categories_segments":[],"categories_sizes":[],"default_left":[0,0,0,0,0,0,0,0,0,0,0],"id":0,"left_children":[1,3,-1,-1,5,7,9,-1,-1,-1,-1],"loss_changes":[6.075678E2,7.230762E1,0E0,0E0,2.5612278E1,5.89373E0,6.8418875E0,0E0,0E0,0E0,0E0],"parents":[2147483647,0,0,1,1,4,4,5,5,6,6],"right_children":[2,4,-1,-1,6,8,10,-1,-1,-1,-1],"split_conditions":[4.9581137E-2,-7.108712E-1,-8.733746E-2,1.13679945E-1,-4.36296E-1,-5.181251E-2,1.566028E0,8.8557236E-2,1.5906768E-3,2.2428653E-3,6.414222E-2],"split_indices":[1,1,0,0,4,1,4,0,0,0,0],"split_type":[0,0,0,0,0,0,0,0,0,0,0],"sum_hessian":[2.2342702E2,1.2202553E2,1.014015E2,6.432734E1,5.7698185E1,2.0378508E1,3.731968E1,1.816879E1,2.2097178E0,3.3145767E1,4.1739116E0],"tree_param":{"num_deleted":"0","num_feature":"6","num_nodes":"11","size_leaf_vector":"1"}},{"base_weights":[-2.0206003E-2,1.1324232E0,-9.100908E-1,1.695413E0,3.9589503E-1,-2.9505268E-1,-1.4697865E0,1.2097722E0,1.05776384E-1,-2.7599594E-1,1.1553731E0,-1.1955582E0,5.1490796E-1,-3.2685369E-3,-1.4956547E0,1.00186385E-1,2.2461167E-2,3.8352594E-2,-3.654881E-2,2.6464004E-2,9.933308E-2,-7.484078E-3,-6.327907E-2,5.542029E-2,-1.5558762E-2,-7.782935E-2,-4.1845005E-2],"categories":[],"categories_nodes":[],"categories_segments":[],"categories_sizes":[],"default_left":[0,0,0,0,0,0,0,0,0,0,0,0,0,0,0,0,0,0,0,0,0,0,0,0,0,0,0],"id":1,"left_children":[1,3,5,7,9,11,13,15,-1,17,19,21,23,-1,25,-1,-1,-1,-1,-1,-1,-1,-1,-1,-1,-1,-1],"loss_changes":[2.268023E2,3.92789E1,4.2515915E1,8.519379E0,2.2283678E1,4.488601E1,2.2662659E0,1.5718716E1,0E0,1.1782365E1,9.564861E0,1.9375305E0,1.6354317E1,0E0,1.2601776E0,0E0,0E0,0E0,0E0,0E0,0E0,0E0,0E0,0E0,0E0,0E0,0E0],"parents":[2147483647,0,0,1,1,2,2,3,3,4,4,5,5,6,6,7,7,9,9,10,10,11,11,12,12,14,14],"right_children":[2,4,6,8,10,12,14,16,-1,18,20,22,24,-1,26,-1,-1,-1,-1,-1,-1,-1,-1,-1,-1,-1,-1],"split_conditions":[-2.3598425E-1,-7.3725116E-1,4.841541E-1,9.6029466E-1,9.6029466E-1,9.6029466E-1,-1.6384145E0,-1.3262613E0,1.05776384E-1,-6.780621E-1,3.328353E-1,-1.4867799E0,5.4564846E-1,-3.2685369E-3,1.41955E0,1.00186385E-1,2.2461167E-2,3.8352594E-2,-3.654881E-2,2.6464004E-2,9.933308E-2,-7.484078E-3,-6.327907E-2,5.542029E-2,-1.5558762E-2,-7.782935E-2,-4.1845005E-2],"split_indices":[5,5,5,0,0,0,2,5,0,2,2,2,3,0,2,0,0,0,0,0,0,0,0,0,0,0,0],"split_type":[0,0,0,0,0,0,0,0,0,0,0,0,0,0,0,0,0,0,0,0,0,0,0,0,0,0,0],"sum_hessian":[2.191132E2,9.534474E1,1.2376846E2,5.330069E1,4.2044052E1,5.9696438E1,6.407203E1,2.6521826E1,2.6778866E1,2.2646164E1,1.9397888E1,2.8042746E1,3.1653692E1,1.2226009E0,6.2849426E1,1.2176208E1,1.4345619E1,6.669759E0,1.5976406E1,1.19981E1,7.3997884E0,1.9565798E0,2.6086164E1,1.822105E1,1.3432642E1,5.628074E1,6.5686855E0],"tree_param":{"num_deleted":"0","num_feature":"6","num_nodes":"27","size_leaf_vector":"1"}},{"base_weights":[1.9115327E-2,1.546479E0,-1.3851447E0,1.0334318E-1,6.872865E-1,-7.484291E-2,-8.2466066E-2,1.4350578E0,2.1645367E-1,-2.525666E-1,6.529155E-2,5.0215807E-2,9.2019364E-2,3.851045E-2,-9.314802E-3,2.8453326E-2,-3.4596052E-2],"categories":[],"categories_nodes":[],"categories_segments":[],"categories_sizes":[],"default_left":[0,0,0,0,0,0,0,0,0,0,0,0,0,0,0,0,0],"id":2,"left_children":[1,3,5,-1,7,9,-1,11,13,15,-1,-1,-1,-1,-1,-1,-1],"loss_changes":[4.750056E2,4.600792E1,3.9819122E1,0E0,1.4304476E1,5.337622E0,0E0,9.2090225E-1,6.087137E0,7.2232904E0,0E0,0E0,0E0,0E0,0E0,0E0,0E0],"parents":[2147483647,0,0,1,1,2,2,4,4,5,5,7,7,8,8,9,9],"right_children":[2,4,6,-1,8,10,-1,12,14,16,-1,-1,-1,-1,-1,-1,-1],"split_conditions":[-1.5320615E-1,-7.108712E-1,4.9581137E-2,1.0334318E-1,-4.36296E-1,1.2931877E0,-8.2466066E-2,-9.4465804E-1,-7.90555E-1,-2.0805182E-1,6.529155E-2,5.0215807E-2,9.2019364E-2,3.851045E-2,-9.314802E-3,2.8453326E-2,-3.4596052E-2],"split_indices":[1,1,1,0,4,2,0,4,5,4,0,0,0,0,0,0,0],"split_type":[0,0,0,0,0,0,0,0,0,0,0,0,0,0,0,0,0],"sum_hessian":[2.1946812E2,1.05077644E2,1.1439049E2,6.4566345E1,4.0511303E1,1.9408527E1,9.498196E1,1.4861124E1,2.5650179E1,1.7919018E1,1.4895099E0,8.890746E0,5.9703774E0,1.0416196E1,1.5233983E1,6.1404953E0,1.17785225E1],"tree_param":{"num_deleted":"0","num_feature":"6","num_nodes":"17","size_leaf_vector":"1"}},{"base_weights":[3.2848364E-3,-4.726899E-1,4.157661E-1,-5.313135E-1,4.6506953E-1,1.9565265E-1,7.955213E-1,-2.1357818E-1,-7.3488516E-1,-3.5591516E-1,6.0307104E-2,7.601954E-1,7.587517E-2,1.1631812E0,1.4652017E-1,7.999006E-3,-3.495213E-2,3.5336055E-2,-3.8874168E-2,-5.247864E-2,2.3975207E-2,-5.0073843E-2,5.452921E-2,8.193691E-3,-4.292873E-2,3.8830716E-2,8.902881E-2,-4.2608682E-2,2.3717338E-2],"categories":[],"categories_nodes":[],"categories_segments":[],"categories_sizes":[],"default_left":[0,0,0,0,0,0,0,0,0,0,0,0,0,0,0,0,0,0,0,0,0,0,0,0,0,0,0,0,0],"id":3,"left_children":[1,3,5,7,9,11,13,15,17,19,-1,21,23,25,27,-1,-1,-1,-1,-1,-1,-1,-1,-1,-1,-1,-1,-1,-1],"loss_changes":[4.4105747E1,5.9810314E0,9.904171E0,6.2226963E0,4.4873376E0,5.183799E0,1.0288864E1,7.352277E0,4.2159805E0,2.784462E0,0E0,8.924406E0,5.490417E0,5.2611084E0,5.968687E0,0E0,0E0,0E0,0E0,0E0,0E0,0E0,0E0,0E0,0E0,0E0,0E0,0E0,0E0],"parents":[2147483647,0,0,1,1,2,2,3,3,4,4,5,5,6,6,7,7,8,8,9,9,11,11,12,12,13,13,14,14],"right_children":[2,4,6,8,10,12,14,16,18,20,-1,22,24,26,28,-1,-1,-1,-1,-1,-1,-1,-1,-1,-1,-1,-1,-1,-1],"split_conditions":[9.6029466E-1,1.566028E0,5.097423E-1,-4.0517178E-1,4.0229586E-1,-1.259328E0,6.89001E-1,2.3174554E-1,-1.6889594E0,-3.24248E-1,6.0307104E-2,-1.3179353E0,1.4774404E0,1.1559065E-1,9.040299E-1,7.999006E-3,-3.495213E-2,3.5336055E-2,-3.8874168E-2,-5.247864E-2,2.3975207E-2,-5.0073843E-2,5.452921E-2,8.193691E-3,-4.292873E-2,3.8830716E-2,8.902881E-2,-4.2608682E-2,2.3717338E-2],"split_indices":[0,4,2,4,3,2,3,2,2,2,0,3,3,3,3,0,0,0,0,0,0,0,0,0,0,0,0,0,0],"split_type":[0,0,0,0,0,0,0,0,0,0,0,0,0,0,0,0,0,0,0,0,0,0,0,0,0,0,0,0,0],"sum_hessian":[2.2264935E2,1.03301094E2,1.1934826E2,9.763115E1,5.669941E0,7.6514305E1,4.2833954E1,3.892541E1,5.870574E1,2.9365087E0,2.733432E0,1.2456555E1,6.405775E1,2.6837957E1,1.59959955E1,2.237704E1,1.654837E1,1.2374551E0,5.746829E1,1.4643229E0,1.4721859E0,1.6464235E0,1.0810131E1,5.9298172E1,4.7595744E0,1.7892742E1,8.945216E0,3.557854E0,1.2438142E1],"tree_param":{"num_deleted":"0","num_feature":"6","num_nodes":"29","size_leaf_vector":"1"}},{"base_weights":[-3.6513463E-2,-5.6052744E-1,4.363715E-1,-1.1087118E-1,-7.822821E-1,3.288712E-1,1.2511398E0,-8.0212283E-1,1.06423445E-1,-8.488126E-1,4.9643777E-2,1.0917673E0,2.2347595E-1,-2.279133E-3,1.4492685E0,2.565751E-2,-5.724016E-2,5.0846886E-2,-1.1655356E-4,1.7925909E-2,-4.518905E-2,-1.9591533E-2,6.9935784E-2,2.4390595E-2,1.0677138E-4,3.8240638E-2,8.533597E-2],"categories":[],"categories_nodes":[],"categories_segments":[],"categories_sizes":[],"default_left":[0,0,0,0,0,0,0,0,0,0,0,0,0,0,0,0,0,0,0,0,0,0,0,0,0,0,0],"id":4,"left_children":[1,3,5,7,9,11,13,15,17,19,-1,21,23,-1,25,-1,-1,-1,-1,-1,-1,-1,-1,-1,-1,-1,-1],"loss_changes":[5.4517353E1,1.0316467E1,9.721464E0,5.4362426E0,9.075352E0,8.082867E0,3.4389248E0,4.48039E0,2.773674E0,4.8188057E0,0E0,6.1552753E0,5.3961997E0,0E0,7.068043E-1,0E0,0E0,0E0,0E0,0E0,0E0,0E0,0E0,0E0,0E0,0E0,0E0],"parents":[2147483647,0,0,1,1,2,2,3,3,4,4,5,5,6,6,7,7,8,8,9,9,11,11,12,12,14,14],"right_children":[2,4,6,8,10,12,14,16,18,20,-1,22,24,-1,26,-1,-1,-1,-1,-1,-1,-1,-1,-1,-1,-1,-1],"split_conditions":[9.6029466E-1,-6.780621E-1,1.3690051E0,-8.162012E-1,1.6386511E0,-1.259328E0,-1.246259E0,-9.965317E-1,-1.6889594E0,-1.5463927E0,4.9643777E-2,-1.3179353E0,-2.0805182E-1,-2.279133E-3,-5.243077E-2,2.565751E-2,-5.724016E-2,5.0846886E-2,-1.1655356E-4,1.7925909E-2,-4.518905E-2,-1.9591533E-2,6.9935784E-2,2.4390595E-2,1.0677138E-4,3.8240638E-2,8.533597E-2],"split_indices":[0,2,2,3,4,2,3,4,2,4,0,3,4,0,4,0,0,0,0,0,0,0,0,0,0,0,0],"split_type":[0,0,0,0,0,0,0,0,0,0,0,0,0,0,0,0,0,0,0,0,0,0,0,0,0,0,0],"sum_hessian":[2.1801984E2,1.033311E2,1.1468874E2,3.4623768E1,6.870733E1,1.0256056E2,1.2128178E1,7.63718E0,2.698659E1,6.672828E1,1.979047E0,1.1313051E1,9.124751E1,1.7095256E0,1.0418653E1,1.4757E0,6.16148E0,1.9884158E0,2.4998175E1,2.6652906E0,6.406299E1,1.8919588E0,9.421092E0,4.1036163E1,5.0211346E1,3.9330385E0,6.485614E0],"tree_param":{"num_deleted":"0","num_feature":"6","num_nodes":"27","size_leaf_vector":"1"}},{"base_weights":[6.683424E-3,1.3715764E0,-1.5041502E0,5.969631E-1,9.85611E-2,-2.0222494E-1,-7.934918E-2,9.958233E-2,-8.122306E-2,-6.688679E-2,7.532455E-2],"categories":[],"categories_nodes":[],"categories_segments":[],"categories_sizes":[],"default_left":[0,0,0,0,0,0,0,0,0,0,0],"id":5,"left_children":[1,3,5,7,-1,9,-1,-1,-1,-1,-1],"loss_changes":[4.662717E2,5.4000854E1,1.1252884E1,1.6826868E2,0E0,1.6694849E1,0E0,0E0,0E0,0E0,0E0],"parents":[2147483647,0,0,1,1,2,2,3,3,5,5],"right_children":[2,4,6,8,-1,10,-1,-1,-1,-1,-1],"split_conditions":[-1.1156872E-3,9.6029466E-1,4.9581137E-2,-7.108712E-1,9.85611E-2,9.6029466E-1,-7.934918E-2,9.958233E-2,-8.122306E-2,-6.688679E-2,7.532455E-2],"split_indices":[1,0,1,1,0,0,0,0,0,0,0],"split_type":[0,0,0,0,0,0,0,0,0,0,0],"sum_hessian":[2.2411165E2,1.17790985E2,1.0632066E2,5.226777E1,6.552322E1,6.5657496E0,9.975491E1,3.2172348E1,2.009542E1,4.0749145E0,2.4908352E0],"tree_param":{"num_deleted":"0","num_feature":"6","num_nodes":"11","size_leaf_vector":"1"}},{"base_weights":[2.6543012E-2,1.201735E0,-7.708508E-2,9.3092225E-2,4.8784336E-1,1.1012216E0,1.1175011E-1,3.259183E-2,8.135031E-2,-1.5001339E-2,3.7725862E-2],"categories":[],"categories_nodes":[],"categories_segments":[],"categories_sizes":[],"default_left":[0,0,0,0,0,0,0,0,0,0,0],"id":6,"left_children":[1,3,-1,-1,5,7,9,-1,-1,-1,-1],"loss_changes":[4.000562E2,5.7560104E1,0E0,0E0,1.3940254E1,4.3877544E0,1.0523352E1,0E0,0E0,0E0,0E0],"parents":[2147483647,0,0,1,1,4,4,5,5,6,6],"right_children":[2,4,-1,-1,6,8,10,-1,-1,-1,-1],"split_conditions":[4.9581137E-2,-7.108712E-1,-7.708508E-2,9.3092225E-2,-4.36296E-1,-9.4465804E-1,4.0229586E-1,3.259183E-2,8.135031E-2,-1.5001339E-2,3.7725862E-2],"split_indices":[1,1,0,0,4,4,3,0,0,0,0],"split_type":[0,0,0,0,0,0,0,0,0,0,0],"sum_hessian":[2.1506401E2,1.23071724E2,9.199229E1,6.3109062E1,5.9962658E1,2.2058668E1,3.7903988E1,1.3101033E1,8.957635E0,2.3428305E1,1.4475685E1],"tree_param":{"num_deleted":"0","num_feature":"6","num_nodes":"11","size_leaf_vector":"1"}},{"base_weights":[1.4168939E-2,9.219409E-1,-7.601451E-1,1.3922569E0,3.0706975E-1,-1.146047E-1,-1.1114457E0,9.191544E-1,8.713884E-2,-1.9883454E-1,9.009706E-1,-8.561687E-1,5.3748864E-1,-7.250652E-2,-7.882491E-1,8.233126E-2,1.3540009E-2,4.631466E-2,-2.51842E-2,2.0644672E-2,8.168668E-2,5.179108E-2,-5.174485E-2,4.9088504E-2,-1.5222344E-2,-1.5092668E-2,-7.188549E-2],"categories":[],"categories_nodes":[],"categories_segments":[],"categories_sizes":[],"default_left":[0,0,0,0,0,0,0,0,0,0,0,0,0,0,0,0,0,0,0,0,0,0,0,0,0,0,0],"id":7,"left_children":[1,3,5,7,9,11,13,15,-1,17,19,21,23,-1,25,-1,-1,-1,-1,-1,-1,-1,-1,-1,-1,-1,-1],"loss_changes":[1.524237E2,2.8437416E1,2.6414192E1,7.7299194E0,1.3562251E1,2.0944418E1,7.1406555E0,1.184775E1,0E0,8.997661E0,6.7179966E0,7.9047375E0,8.959923E0,0E0,1.2490774E1,0E0,0E0,0E0,0E0,0E0,0E0,0E0,0E0,0E0,0E0,0E0,0E0],"parents":[2147483647,0,0,1,1,2,2,3,3,4,4,5,5,6,6,7,7,9,9,10,10,11,11,12,12,14,14],"right_children":[2,4,6,8,10,12,14,16,-1,18,20,22,24,-1,26,-1,-1,-1,-1,-1,-1,-1,-1,-1,-1,-1,-1],"split_conditions":[-2.3598425E-1,-7.3725116E-1,2.365593E-1,9.6029466E-1,9.6029466E-1,9.6029466E-1,9.6029466E-1,-1.3262613E0,8.713884E-2,-9.813313E-1,3.328353E-1,-1.5120524E0,5.4564846E-1,-7.250652E-2,9.996729E-1,8.233126E-2,1.3540009E-2,4.631466E-2,-2.51842E-2,2.0644672E-2,8.168668E-2,5.179108E-2,-5.174485E-2,4.9088504E-2,-1.5222344E-2,-1.5092668E-2,-7.188549E-2],"split_indices":[5,5,5,0,0,0,0,5,0,2,2,2,3,0,5,0,0,0,0,0,0,0,0,0,0,0,0],"split_type":[0,0,0,0,0,0,0,0,0,0,0,0,0,0,0,0,0,0,0,0,0,0,0,0,0,0,0],"sum_hessian":[2.1485254E2,9.881523E1,1.16037315E2,5.5272728E1,4.3542503E1,4.1360535E1,7.467678E1,2.5064724E1,3.0208006E1,2.3872408E1,1.9670097E1,1.9206194E1,2.2154339E1,3.4762047E1,3.9914734E1,1.1086111E1,1.3978613E1,4.6546526E0,1.9217756E1,1.2744646E1,6.92545E0,1.2438185E0,1.7962376E1,1.4393132E1,7.7612066E0,2.366E1,1.6254732E1],"tree_param":{"num_deleted":"0","num_feature":"6","num_nodes":"27","size_leaf_vector":"1"}},{"base_weights":[1.5035926E-2,-4.137959E-1,4.107936E-1,-4.7739097E-1,4.9688068E-1,3.001069E-1,1.1529497E0,5.415973E-2,-5.169893E-1,-2.648601E-1,4.9369752E-2,3.670443E-1,-5.96698E-1,1.2211777E-2,1.2968123E0,-8.8960305E-3,-3.6917746E-2,-4.437048E-2,2.030554E-2,2.7535189E-2,9.471322E-3,-4.318295E-2,1.1469275E-3,6.859903E-2,1.7415244E-2],"categories":[],"categories_nodes":[],"categories_segments":[],"categories_sizes":[],"default_left":[0,0,0,0,0,0,0,0,0,0,0,0,0,0,0,0,0,0,0,0,0,0,0,0,0],"id":8,"left_children":[1,3,5,7,9,11,13,-1,15,17,-1,19,21,-1,23,-1,-1,-1,-1,-1,-1,-1,-1,-1,-1],"loss_changes":[3.6152946E1,6.159376E0,8.75297E0,6.4981728E0,2.9386015E0,6.0863867E0,1.5165997E0,0E0,6.9534645E0,1.8620504E0,0E0,2.8828545E0,1.2057853E0,0E0,3.687954E-1,0E0,0E0,0E0,0E0,0E0,0E0,0E0,0E0,0E0,0E0],"parents":[2147483647,0,0,1,1,2,2,3,3,4,4,5,5,6,6,8,8,9,9,11,11,12,12,14,14],"right_children":[2,4,6,8,10,12,14,-1,16,18,-1,20,22,-1,24,-1,-1,-1,-1,-1,-1,-1,-1,-1,-1],"split_conditions":[9.6029466E-1,1.566028E0,1.3690051E0,-1.6889594E0,4.0229586E-1,1.4774404E0,-1.246259E0,5.415973E-2,-4.0517178E-1,-3.24248E-1,4.9369752E-2,-2.0805182E-1,7.775481E-1,1.2211777E-2,1.405764E0,-8.8960305E-3,-3.6917746E-2,-4.437048E-2,2.030554E-2,2.7535189E-2,9.471322E-3,-4.318295E-2,1.1469275E-3,6.859903E-2,1.7415244E-2],"split_indices":[0,4,2,2,3,3,3,0,4,2,0,4,4,0,3,0,0,0,0,0,0,0,0,0,0],"split_type":[0,0,0,0,0,0,0,0,0,0,0,0,0,0,0,0,0,0,0,0,0,0,0,0,0],"sum_hessian":[2.1102185E2,1.0125703E2,1.09764824E2,9.5092255E1,6.164773E0,9.6741035E1,1.30237875E1,1.7009901E0,9.339126E1,2.5949695E0,3.5698035E0,9.057151E1,6.169524E0,2.148759E0,1.0875029E1,3.760102E1,5.579024E1,1.1787293E0,1.4162402E0,4.3495758E1,4.7075756E1,4.0366006E0,2.1329236E0,9.662799E0,1.2122295E0],"tree_param":{"num_deleted":"0","num_feature":"6","num_nodes":"25","size_leaf_vector":"1"}},{"base_weights":[3.9536566E-3,1.1505669E0,-7.396488E-2,4.287887E-1,8.8888966E-2,8.975456E-2,-7.7333026E-2],"categories":[],"categories_nodes":[],"categories_segments":[],"categories_sizes":[],"default_left":[0,0,0,0,0,0,0],"id":9,"left_children":[1,3,-1,5,-1,-1,-1],"loss_changes":[3.6042346E2,5.3347275E1,0E0,1.5632741E2,0E0,0E0,0E0],"parents":[2147483647,0,0,1,1,3,3],"right_children":[2,4,-1,6,-1,-1,-1],"split_conditions":[4.9581137E-2,9.6029466E-1,-7.396488E-2,-7.108712E-1,8.8888966E-2,8.975456E-2,-7.7333026E-2],"split_indices":[1,0,0,1,0,0,0],"split_type":[0,0,0,0,0,0,0],"sum_hessian":[2.0992383E2,1.18524155E2,9.139968E1,5.5890537E1,6.2633617E1,3.3093204E1,2.2797333E1],"tree_param":{"num_deleted":"0","num_feature":"6","num_nodes":"7","size_leaf_vector":"1"}},{"base_weights":[1.3523469E-2,1.095589E0,-7.2166435E-2,8.4273584E-2,4.3857265E-1,9.175668E-1,1.1407513E-1,5.0243672E-2,-1.2635111E-2,-3.6694504E-2,1.4438639E-2],"categories":[],"categories_nodes":[],"categories_segments":[],"categories_sizes":[],"default_left":[0,0,0,0,0,0,0,0,0,0,0],"id":10,"left_children":[1,3,-1,-1,5,7,9,-1,-1,-1,-1],"loss_changes":[3.3339993E2,4.6291306E1,0E0,0E0,9.028487E0,2.6640434E0,5.5702133E0,0E0,0E0,0E0,0E0],"parents":[2147483647,0,0,1,1,4,4,5,5,6,6],"right_children":[2,4,-1,-1,6,8,10,-1,-1,-1,-1],"split_conditions":[4.9581137E-2,-7.108712E-1,-7.2166435E-2,8.4273584E-2,-2.5992548E-1,-1.1156872E-3,4.094185E-2,5.0243672E-2,-1.2635111E-2,-3.6694504E-2,1.4438639E-2],"split_indices":[1,1,0,0,4,1,4,0,0,0,0],"split_type":[0,0,0,0,0,0,0,0,0,0,0],"sum_hessian":[2.0949008E2,1.2034945E2,8.914063E1,6.2589756E1,5.775969E1,2.2588669E1,3.517102E1,2.115198E1,1.4366891E0,5.4613333E0,2.9709686E1],"tree_param":{"num_deleted":"0","num_feature":"6","num_nodes":"11","size_leaf_vector":"1"}},{"base_weights":[-2.0612974E-2,1.0294791E0,-7.0652805E-2,2.6041976E-1,8.3696604E-2,8.3373845E-2,-7.58069E-2],"categories":[],"categories_nodes":[],"categories_segments":[],"categories_sizes":[],"default_left":[0,0,0,0,0,0,0],"id":11,"left_children":[1,3,-1,5,-1,-1,-1],"loss_changes":[2.9387115E2,5.6355537E1,0E0,1.3607974E2,0E0,0E0,0E0],"parents":[2147483647,0,0,1,1,3,3],"right_children":[2,4,-1,6,-1,-1,-1],"split_conditions":[4.9581137E-2,9.6029466E-1,-7.0652805E-2,-7.108712E-1,8.3696604E-2,8.3373845E-2,-7.58069E-2],"split_indices":[1,0,0,1,0,0,0],"split_type":[0,0,0,0,0,0,0],"sum_hessian":[1.9898479E2,1.1358606E2,8.539873E1,5.2426678E1,6.1159386E1,2.9290007E1,2.3136671E1],"tree_param":{"num_deleted":"0","num_feature":"6","num_nodes":"7","size_leaf_vector":"1"}},{"base_weights":[8.94919E-3,1.063888E0,-1.3017594E0,4.1677648E-1,8.067336E-2,-1.907077E-1,-6.906447E-2,8.048829E-2,-7.35377E-2,-5.917848E-2,6.200937E-2],"categories":[],"categories_nodes":[],"categories_segments":[],"categories_sizes":[],"default_left":[0,0,0,0,0,0,0,0,0,0,0],"id":12,"left_children":[1,3,5,7,-1,9,-1,-1,-1,-1,-1],"loss_changes":[2.7996515E2,3.922252E1,7.71521E0,1.21411514E2,0E0,1.1685114E1,0E0,0E0,0E0,0E0,0E0],"parents":[2147483647,0,0,1,1,2,2,3,3,5,5],"right_children":[2,4,6,8,-1,10,-1,-1,-1,-1,-1],"split_conditions":[-1.1156872E-3,9.6029466E-1,4.9581137E-2,-7.108712E-1,8.067336E-2,9.6029466E-1,-6.906447E-2,8.048829E-2,-7.35377E-2,-5.917848E-2,6.200937E-2],"split_indices":[1,0,1,1,0,0,0,0,0,0,0],"split_type":[0,0,0,0,0,0,0,0,0,0,0],"sum_hessian":[2.0047302E2,1.11178246E2,8.929478E1,5.1866043E1,5.9312206E1,6.1918087E0,8.310297E1,3.1870108E1,1.9995934E1,3.7574537E0,2.434355E0],"tree_param":{"num_deleted":"0","num_feature":"6","num_nodes":"11","size_leaf_vector":"1"}},{"base_weights":[2.5945203E-2,8.273924E-1,-6.7097557E-1,1.1942186E0,3.7853932E-1,-1.7528613E-1,-1.090327E0,1.7112991E-1,1.2882406E0,-9.9505015E-2,8.412798E-1,-7.6406527E-1,3.09701E-1,-8.1195664E-1,-6.5728396E-2,-4.083705E-2,3.1794995E-2,5.116427E-2,7.328272E-2,-4.1869625E-2,1.1727157E-2,7.173754E-2,2.1327225E-2,3.2693103E-2,-4.442072E-2,2.4600936E-2,-5.0875284E-2,-6.311833E-2,-1.9540671E-2],"categories":[],"categories_nodes":[],"categories_segments":[],"categories_sizes":[],"default_left":[0,0,0,0,0,0,0,0,0,0,0,0,0,0,0,0,0,0,0,0,0,0,0,0,0,0,0,0,0],"id":13,"left_children":[1,3,5,7,9,11,13,15,17,19,21,23,25,27,-1,-1,-1,-1,-1,-1,-1,-1,-1,-1,-1,-1,-1,-1,-1],"loss_changes":[1.0873556E2,1.4454357E1,2.1458153E1,4.5271072E0,9.414066E0,1.4206249E1,2.4424515E0,2.9560483E0,6.177597E-1,5.530566E0,4.689268E0,4.527755E0,7.16382E0,4.7612457E0,0E0,0E0,0E0,0E0,0E0,0E0,0E0,0E0,0E0,0E0,0E0,0E0,0E0,0E0,0E0],"parents":[2147483647,0,0,1,1,2,2,3,3,4,4,5,5,6,6,7,7,8,8,9,9,10,10,11,11,12,12,13,13],"right_children":[2,4,6,8,10,12,14,16,18,20,22,24,26,28,-1,-1,-1,-1,-1,-1,-1,-1,-1,-1,-1,-1,-1,-1,-1],"split_conditions":[-2.3598425E-1,-7.6748973E-1,4.1684258E-1,-1.4615076E0,9.6029466E-1,9.6029466E-1,9.996729E-1,-5.29496E-1,9.6029466E-1,-6.7945534E-1,-5.8644813E-1,-1.5120524E0,1.405764E0,9.6029466E-1,-6.5728396E-2,-4.083705E-2,3.1794995E-2,5.116427E-2,7.328272E-2,-4.1869625E-2,1.1727157E-2,7.173754E-2,2.1327225E-2,3.2693103E-2,-4.442072E-2,2.4600936E-2,-5.0875284E-2,-6.311833E-2,-1.9540671E-2],"split_indices":[5,5,5,2,0,0,5,3,0,5,5,2,3,0,0,0,0,0,0,0,0,0,0,0,0,0,0,0,0],"split_type":[0,0,0,0,0,0,0,0,0,0,0,0,0,0,0,0,0,0,0,0,0,0,0,0,0,0,0,0,0],"sum_hessian":[1.9268245E2,8.953336E1,1.0314908E2,4.835474E1,4.1178627E1,4.792174E1,5.5227337E1,4.3071423E0,4.4047596E1,2.0640484E1,2.0538143E1,2.1384869E1,2.6536875E1,2.67014E1,2.8525936E1,1.1357654E0,3.1713767E0,2.0379711E1,2.3667885E1,5.962644E0,1.4677839E1,7.436848E0,1.31012945E1,1.380866E0,2.0004004E1,2.3885077E1,2.6517987E0,1.1937186E1,1.4764215E1],"tree_param":{"num_deleted":"0","num_feature":"6","num_nodes":"29","size_leaf_vector":"1"}},{"base_weights":[-1.5821284E-2,-4.0105587E-1,3.1051785E-1,-6.8499215E-2,-5.6724143E-1,2.239858E-1,9.5971817E-1,-1.7056577E-1,4.3909166E-2,1.8828906E-2,-6.148049E-1,4.19311E-1,3.312042E-2,1.0256857E0,1.1593077E-2,-4.2181935E-2,-5.6822307E-4,-3.282193E-2,2.3340782E-2,7.113058E-3,3.5654753E-2,-4.609831E-2,8.734052E-3,2.6211604E-2,6.326123E-2],"categories":[],"categories_nodes":[],"categories_segments":[],"categories_sizes":[],"default_left":[0,0,0,0,0,0,0,0,0,0,0,0,0,0,0,0,0,0,0,0,0,0,0,0,0],"id":14,"left_children":[1,3,5,7,9,11,13,15,-1,-1,17,19,21,23,-1,-1,-1,-1,-1,-1,-1,-1,-1,-1,-1],"loss_changes":[2.396638E1,4.792034E0,5.58445E0,3.074001E0,2.841858E0,3.4307814E0,3.3055592E-1,3.0074089E0,0E0,0E0,2.8164139E0,3.6084137E0,6.626201E0,6.053686E-1,0E0,0E0,0E0,0E0,0E0,0E0,0E0,0E0,0E0,0E0,0E0],"parents":[2147483647,0,0,1,1,2,2,3,3,4,4,5,5,6,6,7,7,10,10,11,11,12,12,13,13],"right_children":[2,4,6,8,10,12,14,16,-1,-1,18,20,22,24,-1,-1,-1,-1,-1,-1,-1,-1,-1,-1,-1],"split_conditions":[9.6029466E-1,-6.780621E-1,1.3690051E0,-7.791518E-1,-1.5463927E0,-2.0805182E-1,1.6975467E0,-8.162012E-1,4.3909166E-2,1.8828906E-2,1.6386511E0,-8.9278436E-1,2.0192377E-2,1.03190266E-1,1.1593077E-2,-4.2181935E-2,-5.6822307E-4,-3.282193E-2,2.3340782E-2,7.113058E-3,3.5654753E-2,-4.609831E-2,8.734052E-3,2.6211604E-2,6.326123E-2],"split_indices":[0,2,2,2,4,4,2,3,0,0,4,4,4,4,0,0,0,0,0,0,0,0,0,0,0],"split_type":[0,0,0,0,0,0,0,0,0,0,0,0,0,0,0,0,0,0,0,0,0,0,0,0,0],"sum_hessian":[1.8864676E2,8.641143E1,1.0223533E2,2.9263643E1,5.7147785E1,9.13979E1,1.0837427E1,2.7155684E1,2.1079612E0,2.4099E0,5.4737885E1,4.4579674E1,4.6818226E1,9.561645E0,1.2757822E0,4.372096E0,2.2783587E1,5.308754E1,1.6503458E0,2.3707148E1,2.0872526E1,5.331898E0,4.148633E1,4.1217127E0,5.4399323E0],"tree_param":{"num_deleted":"0","num_feature":"6","num_nodes":"25","size_leaf_vector":"1"}},{"base_weights":[3.8601752E-2,7.781426E-1,-6.948409E-1,3.598013E-1,1.1866733E0,-4.2406842E-1,-1.2675434E0,6.932182E-2,1.2670538E-2,7.2792836E-2,6.101125E-1,-9.8519987E-1,9.959879E-3,-1.9146686E-2,-6.433581E-2,2.4953464E-2,-9.669706E-3,-4.6020374E-2,4.2110365E-2,2.1836944E-2,-5.435015E-2,1.895611E-2,-8.279765E-3],"categories":[],"categories_nodes":[],"categories_segments":[],"categories_sizes":[],"default_left":[0,0,0,0,0,0,0,0,0,0,0,0,0,0,0,0,0,0,0,0,0,0,0],"id":15,"left_children":[1,3,5,7,9,11,13,-1,15,-1,17,19,21,-1,-1,-1,-1,-1,-1,-1,-1,-1,-1],"loss_changes":[1.0451556E2,1.5966278E1,1.4468834E1,1.7382923E1,6.5759735E0,1.6378063E1,2.5619507E-2,0E0,3.854896E0,0E0,6.824213E0,4.7193184E0,2.582907E0,0E0,0E0,0E0,0E0,0E0,0E0,0E0,0E0,0E0,0E0],"parents":[2147483647,0,0,1,1,2,2,3,3,4,4,5,5,6,6,8,8,10,10,11,11,12,12],"right_children":[2,4,6,8,10,12,14,-1,16,-1,18,20,22,-1,-1,-1,-1,-1,-1,-1,-1,-1,-1],"split_conditions":[-1.446635E-1,9.6029466E-1,9.208266E-1,-1.3262613E0,-5.8644813E-1,9.6029466E-1,-1.6131421E0,6.932182E-2,-6.780621E-1,7.2792836E-2,-5.6450915E-1,-1.5120524E0,1.3371211E-1,-1.9146686E-2,-6.433581E-2,2.4953464E-2,-9.669706E-3,-4.6020374E-2,4.2110365E-2,2.1836944E-2,-5.435015E-2,1.895611E-2,-8.279765E-3],"split_indices":[5,0,5,5,5,0,2,0,2,0,5,2,5,0,0,0,0,0,0,0,0,0,0],"split_type":[0,0,0,0,0,0,0,0,0,0,0,0,0,0,0,0,0,0,0,0,0,0,0],"sum_hessian":[1.9069028E2,9.492006E1,9.577022E1,4.7826134E1,4.7093925E1,6.620779E1,2.9562426E1,1.1328435E1,3.64977E1,3.1065205E1,1.6028719E1,2.8321968E1,3.7885822E1,1.0720484E0,2.8490377E1,1.0437926E1,2.6059774E1,1.7200977E0,1.4308622E1,1.6724145E0,2.6649553E1,1.1836384E1,2.6049438E1],"tree_param":{"num_deleted":"0","num_feature":"6","num_nodes":"23","size_leaf_vector":"1"}},{"base_weights":[-1.100242E-2,1.1530873E0,-4.4482774E-1,1.3835337E0,6.7528206E-1,1.0798731E-1,-9.282848E-1,7.23153E-2,7.980213E-1,1.91103E-2,6.6255294E-2,1.2014487E0,-9.6891207E-1,-3.9878002E-1,-1.2583477E0,5.9027113E-2,-1.0560837E-2,5.9761744E-2,-5.5997174E-2,7.217766E-2,2.5962422E-2,-5.841978E-3,-6.313362E-2,-6.414924E-2,2.1194803E-2,-4.096432E-2,-6.626006E-2],"categories":[],"categories_nodes":[],"categories_segments":[],"categories_sizes":[],"default_left":[0,0,0,0,0,0,0,0,0,0,0,0,0,0,0,0,0,0,0,0,0,0,0,0,0,0,0],"id":16,"left_children":[1,3,5,7,9,11,13,-1,15,17,-1,19,21,23,25,-1,-1,-1,-1,-1,-1,-1,-1,-1,-1,-1,-1],"loss_changes":[9.43728E1,4.652359E0,3.647982E1,6.881714E-2,7.8468437E0,7.699844E1,1.220731E1,0E0,2.354494E0,1.5004317E1,0E0,4.601879E0,8.1123905E0,2.1920471E1,2.1554565E-1,0E0,0E0,0E0,0E0,0E0,0E0,0E0,0E0,0E0,0E0,0E0,0E0],"parents":[2147483647,0,0,1,1,2,2,3,3,4,4,5,5,6,6,8,8,9,9,11,11,12,12,13,13,14,14],"right_children":[2,4,6,8,10,12,14,-1,16,18,-1,20,22,24,26,-1,-1,-1,-1,-1,-1,-1,-1,-1,-1,-1,-1],"split_conditions":[-7.33742E-1,1.2444112E0,-4.2592126E-1,-7.6748973E-1,9.6029466E-1,6.155028E-1,-1.8035617E-1,7.23153E-2,6.841755E-1,-1.3262613E0,6.6255294E-2,2.365593E-1,9.996729E-1,9.6029466E-1,-2.0805182E-1,5.9027113E-2,-1.0560837E-2,5.9761744E-2,-5.5997174E-2,7.217766E-2,2.5962422E-2,-5.841978E-3,-6.313362E-2,-6.414924E-2,2.1194803E-2,-4.096432E-2,-6.626006E-2],"split_indices":[5,4,4,5,0,5,5,0,4,5,0,5,5,0,4,0,0,0,0,0,0,0,0,0,0,0,0],"split_type":[0,0,0,0,0,0,0,0,0,0,0,0,0,0,0,0,0,0,0,0,0,0,0,0,0,0,0],"sum_hessian":[1.8485687E2,4.9737522E1,1.3511935E2,3.2275417E1,1.7462107E1,6.340022E1,7.171914E1,2.7822449E1,4.452967E0,9.200817E0,8.26129E0,3.140082E1,3.19994E1,2.8387138E1,4.3331997E1,3.1059973E0,1.3469698E0,4.50248E0,4.698337E0,2.2352253E1,9.048568E0,8.562117E0,2.3437283E1,1.341225E1,1.4974889E1,7.477613E0,3.5854385E1],"tree_param":{"num_deleted":"0","num_feature":"6","num_nodes":"27","size_leaf_vector":"1"}},{"base_weights":[-2.0439314E-2,6.926414E-1,-6.910549E-1,1.3089306E0,2.7437994E-1,-2.2978988E-1,-1.2025943E0,6.791528E-2,7.3775893E-1,9.8467356E-1,-8.0465925E-1,9.5956004E-1,-1.0122633E0,-7.0227873E-1,-6.493614E-2,5.796945E-2,-1.4537481E-2,2.4098957E-2,6.7871034E-2,-6.505743E-2,-4.943471E-3,-1.6439523E-3,7.002991E-2,-1.7794125E-2,-6.208851E-2,2.8597105E-2,-5.6945276E-2],"categories":[],"categories_nodes":[],"categories_segments":[],"categories_sizes":[],"default_left":[0,0,0,0,0,0,0,0,0,0,0,0,0,0,0,0,0,0,0,0,0,0,0,0,0,0,0],"id":17,"left_children":[1,3,5,7,9,11,13,-1,15,17,19,21,23,25,-1,-1,-1,-1,-1,-1,-1,-1,-1,-1,-1,-1,-1],"loss_changes":[8.748067E1,2.2498695E1,2.196479E1,1.4686584E-3,4.2248577E1,4.824933E1,1.2261353E0,0E0,2.514155E0,5.541954E0,7.5881596E0,9.094673E0,4.2474613E0,5.8492928E0,0E0,0E0,0E0,0E0,0E0,0E0,0E0,0E0,0E0,0E0,0E0,0E0,0E0],"parents":[2147483647,0,0,1,1,2,2,3,3,4,4,5,5,6,6,8,8,9,9,10,10,11,11,12,12,13,13],"right_children":[2,4,6,8,10,12,14,-1,16,18,20,22,24,26,-1,-1,-1,-1,-1,-1,-1,-1,-1,-1,-1,-1,-1],"split_conditions":[-1.7235844E-1,2.6918605E-1,-4.36296E-1,-2.6147205E-1,-8.2301533E-1,6.155028E-1,-2.0805182E-1,6.791528E-2,1.1559065E-1,9.6029466E-1,9.6029466E-1,9.6029466E-1,9.996729E-1,6.74546E-2,-6.493614E-2,5.796945E-2,-1.4537481E-2,2.4098957E-2,6.7871034E-2,-6.505743E-2,-4.943471E-3,-1.6439523E-3,7.002991E-2,-1.7794125E-2,-6.208851E-2,2.8597105E-2,-5.6945276E-2],"split_indices":[5,4,4,5,5,5,4,0,3,0,0,0,5,5,0,0,0,0,0,0,0,0,0,0,0,0,0],"split_type":[0,0,0,0,0,0,0,0,0,0,0,0,0,0,0,0,0,0,0,0,0,0,0,0,0,0,0],"sum_hessian":[1.809353E2,8.7675316E1,9.3259995E1,3.458558E1,5.3089737E1,4.9801888E1,4.3458107E1,3.0565256E1,4.0203214E0,3.206797E1,2.1021767E1,1.9672943E1,3.0128944E1,8.342722E0,3.5115383E1,2.7611527E0,1.2591685E0,1.4630299E1,1.7437674E1,1.1845494E1,9.176271E0,6.3375106E0,1.3335431E1,8.466297E0,2.1662647E1,2.0500598E0,6.292662E0],"tree_param":{"num_deleted":"0","num_feature":"6","num_nodes":"27","size_leaf_vector":"1"}},{"base_weights":[-7.9541085E-3,4.7698575E-1,-8.946261E-1,1.1351265E0,-6.087771E-2,-1.3953245E-1,-6.108374E-2,7.805908E-1,7.02359E-2,8.941262E-1,-1.0747262E0,9.410822E-1,-5.843982E-2,5.941832E-2,-9.07107E-3,1.2859099E-2,6.724911E-2,-2.534444E-2,-6.531079E-2,-2.2621185E-2,7.361787E-2],"categories":[],"categories_nodes":[],"categories_segments":[],"categories_sizes":[],"default_left":[0,0,0,0,0,0,0,0,0,0,0,0,0,0,0,0,0,0,0,0,0],"id":18,"left_children":[1,3,5,7,9,11,-1,13,-1,15,17,19,-1,-1,-1,-1,-1,-1,-1,-1,-1],"loss_changes":[7.903241E1,4.2133633E1,1.5876892E1,4.0161133E0,6.519239E1,2.4198761E1,0E0,1.0162364E1,0E0,9.620844E0,3.6273613E0,8.576747E0,0E0,0E0,0E0,0E0,0E0,0E0,0E0,0E0,0E0],"parents":[2147483647,0,0,1,1,2,2,3,3,4,4,5,5,7,7,9,9,10,10,11,11],"right_children":[2,4,6,8,10,12,-1,14,-1,16,18,20,-1,-1,-1,-1,-1,-1,-1,-1,-1],"split_conditions":[2.365593E-1,2.6918605E-1,-1.1936517E0,9.6029466E-1,-7.6012534E-1,9.996729E-1,-6.108374E-2,-2.9146096E-1,7.02359E-2,9.6029466E-1,-5.34363E-1,9.6029466E-1,-5.843982E-2,5.941832E-2,-9.07107E-3,1.2859099E-2,6.724911E-2,-2.534444E-2,-6.531079E-2,-2.2621185E-2,7.361787E-2],"split_indices":[5,4,4,0,5,5,0,5,0,0,5,0,0,0,0,0,0,0,0,0,0],"split_type":[0,0,0,0,0,0,0,0,0,0,0,0,0,0,0,0,0,0,0,0,0],"sum_hessian":[1.8181134E2,1.17829765E2,6.398157E1,5.2490673E1,6.533909E1,1.976789E1,4.421368E1,2.4355972E1,2.81347E1,3.3706776E1,3.1632317E1,9.685183E0,1.0082708E1,1.6940134E1,7.4158397E0,1.4621195E1,1.9085579E1,1.0084644E1,2.1547672E1,2.7142563E0,6.9709263E0],"tree_param":{"num_deleted":"0","num_feature":"6","num_nodes":"21","size_leaf_vector":"1"}},{"base_weights":[-3.7379644E-3,8.726496E-1,-6.404405E-2,7.0844404E-2,3.0843198E-1,9.163951E-1,4.1459966E-3,2.2613665E-2,5.2639343E-2,-1.5341604E-2,3.3669416E-2],"categories":[],"categories_nodes":[],"categories_segments":[],"categories_sizes":[],"default_left":[0,0,0,0,0,0,0,0,0,0,0],"id":19,"left_children":[1,3,-1,-1,5,7,9,-1,-1,-1,-1],"loss_changes":[1.9848692E2,3.1857658E1,0E0,0E0,9.785347E0,6.4087677E-1,7.755117E0,0E0,0E0,0E0,0E0],"parents":[2147483647,0,0,1,1,4,4,5,5,6,6],"right_children":[2,4,-1,-1,6,8,10,-1,-1,-1,-1],"split_conditions":[4.9581137E-2,-7.108712E-1,-6.404405E-2,7.0844404E-2,-6.230413E-1,-5.29496E-1,5.4564846E-1,2.2613665E-2,5.2639343E-2,-1.5341604E-2,3.3669416E-2],"split_indices":[1,1,0,0,4,3,3,0,0,0,0],"split_type":[0,0,0,0,0,0,0,0,0,0,0],"sum_hessian":[1.7533702E2,1.0417078E2,7.116625E1,5.2254948E1,5.191583E1,1.6645836E1,3.5269993E1,4.7609572E0,1.1884879E1,2.4450197E1,1.0819796E1],"tree_param":{"num_deleted":"0","num_feature":"6","num_nodes":"11","size_leaf_vector":"1"}},{"base_weights":[2.6727505E-2,8.758267E-1,-6.297994E-2,3.1672847E-1,7.139847E-2,7.195179E-2,-6.884478E-2],"categories":[],"categories_nodes":[],"categories_segments":[],"categories_sizes":[],"default_left":[0,0,0,0,0,0,0],"id":20,"left_children":[1,3,-1,5,-1,-1,-1],"loss_changes":[1.9354543E2,3.249382E1,0E0,1.0521832E2,0E0,0E0,0E0],"parents":[2147483647,0,0,1,1,3,3],"right_children":[2,4,-1,6,-1,-1,-1],"split_conditions":[4.9581137E-2,9.6029466E-1,-6.297994E-2,-7.108712E-1,7.139847E-2,7.195179E-2,-6.884478E-2],"split_indices":[1,0,0,1,0,0,0],"split_type":[0,0,0,0,0,0,0],"sum_hessian":[1.751939E2,1.057246E2,6.946929E1,5.331331E1,5.2411293E1,3.215536E1,2.1157948E1],"tree_param":{"num_deleted":"0","num_feature":"6","num_nodes":"7","size_leaf_vector":"1"}},{"base_weights":[3.5725597E-2,8.939683E-1,-6.2239494E-2,6.790694E-2,3.734284E-1,7.735136E-1,4.0157165E-2,2.4344658E-2,5.663782E-2,-1.4962092E-2,3.2712996E-2],"categories":[],"categories_nodes":[],"categories_segments":[],"categories_sizes":[],"default_left":[0,0,0,0,0,0,0,0,0,0,0],"id":21,"left_children":[1,3,-1,-1,5,7,9,-1,-1,-1,-1],"loss_changes":[1.8616957E2,2.3992752E1,0E0,0E0,6.525965E0,1.743926E0,6.0073447E0,0E0,0E0,0E0,0E0],"parents":[2147483647,0,0,1,1,4,4,5,5,6,6],"right_children":[2,4,-1,-1,6,8,10,-1,-1,-1,-1],"split_conditions":[4.9581137E-2,-7.108712E-1,-6.2239494E-2,6.790694E-2,-2.0805182E-1,3.8338014E-1,5.4564846E-1,2.4344658E-2,5.663782E-2,-1.4962092E-2,3.2712996E-2],"split_indices":[1,1,0,0,4,2,3,0,0,0,0],"split_type":[0,0,0,0,0,0,0,0,0,0,0],"sum_hessian":[1.6738757E2,1.0039888E2,6.698869E1,5.2222485E1,4.81764E1,2.1293283E1,2.6883116E1,1.3153859E1,8.139424E0,1.7644283E1,9.2388315E0],"tree_param":{"num_deleted":"0","num_feature":"6","num_nodes":"11","size_leaf_vector":"1"}},{"base_weights":[1.2241118E-2,7.861302E-1,-6.138416E-2,6.681116E-2,2.4070047E-1,6.0070163E-1,-5.537632E-2,3.515968E-2,-1.39461355E-2,-4.9580123E-2,4.094909E-3],"categories":[],"categories_nodes":[],"categories_segments":[],"categories_sizes":[],"default_left":[0,0,0,0,0,0,0,0,0,0,0],"id":22,"left_children":[1,3,-1,-1,5,7,9,-1,-1,-1,-1],"loss_changes":[1.5622438E2,2.9751877E1,0E0,0E0,5.5278077E0,2.3010397E0,3.8342001E0,0E0,0E0,0E0,0E0],"parents":[2147483647,0,0,1,1,4,4,5,5,6,6],"right_children":[2,4,-1,-1,6,8,10,-1,-1,-1,-1],"split_conditions":[4.9581137E-2,-7.108712E-1,-6.138416E-2,6.681116E-2,-1.1467919E-1,-1.1156872E-3,4.094185E-2,3.515968E-2,-1.39461355E-2,-4.9580123E-2,4.094909E-3],"split_indices":[1,1,0,0,4,1,4,0,0,0,0],"split_type":[0,0,0,0,0,0,0,0,0,0,0],"sum_hessian":[1.6080191E2,9.923263E1,6.1569286E1,4.8683273E1,5.054936E1,2.234775E1,2.8201607E1,2.019522E1,2.1525292E0,2.8104625E0,2.5391144E1],"tree_param":{"num_deleted":"0","num_feature":"6","num_nodes":"11","size_leaf_vector":"1"}},{"base_weights":[2.1570176E-2,6.6052943E-1,-5.5163586E-1,2.5965297E-1,1.0597154E0,-1.6270679E-1,-9.467902E-1,5.9924047E-2,-6.716254E-2,6.460393E-2,5.107516E-1,-7.130632E-1,2.7873066E-1,-6.641422E-1,-5.7835657E-2,2.9321453E-2,-9.45793E-3,-3.4976926E-2,3.876647E-2,-5.426257E-3,-4.0921807E-2,2.9829586E-2,-1.4556025E-2,-5.5874463E-2,-1.5530412E-2],"categories":[],"categories_nodes":[],"categories_segments":[],"categories_sizes":[],"default_left":[0,0,0,0,0,0,0,0,0,0,0,0,0,0,0,0,0,0,0,0,0,0,0,0,0],"id":23,"left_children":[1,3,5,7,9,11,13,-1,15,-1,17,19,21,23,-1,-1,-1,-1,-1,-1,-1,-1,-1,-1,-1],"loss_changes":[6.010263E1,1.2140171E1,1.3143171E1,1.2364051E1,4.2574005E0,1.1085663E1,1.7659302E0,0E0,2.554327E0,0E0,4.7430067E0,1.1996346E0,4.8080587E0,2.9465637E0,0E0,0E0,0E0,0E0,0E0,0E0,0E0,0E0,0E0,0E0,0E0],"parents":[2147483647,0,0,1,1,2,2,3,3,4,4,5,5,6,6,8,8,10,10,11,11,12,12,13,13],"right_children":[2,4,6,8,10,12,14,-1,16,-1,18,20,22,24,-1,-1,-1,-1,-1,-1,-1,-1,-1,-1,-1],"split_conditions":[-2.3598425E-1,9.6029466E-1,4.841541E-1,-1.3262613E0,-5.8644813E-1,9.6029466E-1,9.996729E-1,5.9924047E-2,-1.1029065E0,6.460393E-2,-5.6450915E-1,-1.3351454E0,5.4564846E-1,9.6029466E-1,-5.7835657E-2,2.9321453E-2,-9.45793E-3,-3.4976926E-2,3.876647E-2,-5.426257E-3,-4.0921807E-2,2.9829586E-2,-1.4556025E-2,-5.5874463E-2,-1.5530412E-2],"split_indices":[5,0,5,5,5,0,5,0,3,0,5,2,3,0,0,0,0,0,0,0,0,0,0,0,0],"split_type":[0,0,0,0,0,0,0,0,0,0,0,0,0,0,0,0,0,0,0,0,0,0,0,0,0],"sum_hessian":[1.621055E2,7.658405E1,8.552145E1,3.9034603E1,3.754945E1,4.3811707E1,4.1709743E1,9.390835E0,2.9643768E1,2.5431316E1,1.2118134E1,1.9226276E1,2.458543E1,1.9550272E1,2.2159472E1,4.0640016E0,2.5579765E1,1.878967E0,1.0239167E1,3.1550834E0,1.6071192E1,1.5752059E1,8.833371E0,7.6191287E0,1.1931143E1],"tree_param":{"num_deleted":"0","num_feature":"6","num_nodes":"25","size_leaf_vector":"1"}},{"base_weights":[-3.2098273E-5,7.5693446E-1,-6.0391713E-2,1.5637851E-1,6.762492E-2,6.724136E-2,-6.723166E-2],"categories":[],"categories_nodes":[],"categories_segments":[],"categories_sizes":[],"default_left":[0,0,0,0,0,0,0],"id":24,"left_children":[1,3,-1,5,-1,-1,-1],"loss_changes":[1.442289E2,3.4473858E1,0E0,8.996096E1,0E0,0E0,0E0],"parents":[2147483647,0,0,1,1,3,3],"right_children":[2,4,-1,6,-1,-1,-1],"split_conditions":[4.9581137E-2,9.6029466E-1,-6.0391713E-2,-7.108712E-1,6.762492E-2,6.724136E-2,-6.723166E-2],"split_indices":[1,0,0,1,0,0,0],"split_type":[0,0,0,0,0,0,0],"sum_hessian":[1.557538E2,9.5976006E1,5.9777798E1,4.8416374E1,4.7559628E1,2.707968E1,2.1336695E1],"tree_param":{"num_deleted":"0","num_feature":"6","num_nodes":"7","size_leaf_vector":"1"}},{"base_weights":[-1.387187E-2,7.2443277E-1,-5.971701E-2,6.409684E-2,2.2570145E-1,-9.1996625E-2,5.2882785E-1,-1.7418882E-2,1.7616116E-2,3.4119256E-2,-1.9898092E-2],"categories":[],"categories_nodes":[],"categories_segments":[],"categories_sizes":[],"default_left":[0,0,0,0,0,0,0,0,0,0,0],"id":25,"left_children":[1,3,-1,-1,5,7,9,-1,-1,-1,-1],"loss_changes":[1.3568227E2,2.6344376E1,0E0,0E0,5.034563E0,3.099441E0,4.063192E0,0E0,0E0,0E0,0E0],"parents":[2147483647,0,0,1,1,4,4,5,5,6,6],"right_children":[2,4,-1,-1,6,8,10,-1,-1,-1,-1],"split_conditions":[4.9581137E-2,-7.108712E-1,-5.971701E-2,6.409684E-2,-3.6796114E-1,5.4564846E-1,-1.1156872E-3,-1.7418882E-2,1.7616116E-2,3.4119256E-2,-1.9898092E-2],"split_indices":[1,1,0,0,5,3,1,0,0,0,0],"split_type":[0,0,0,0,0,0,0,0,0,0,0],"sum_hessian":[1.536874E2,9.478929E1,5.8898098E1,4.4015934E1,5.077336E1,2.5130896E1,2.5642464E1,1.6072607E1,9.0582905E0,2.222395E1,3.4185135E0],"tree_param":{"num_deleted":"0","num_feature":"6","num_nodes":"11","size_leaf_vector":"1"}},{"base_weights":[1.4487803E-2,7.504364E-1,-5.905038E-2,1.1153497E-1,6.592915E-2,6.456106E-2,-6.5650195E-2],"categories":[],"categories_nodes":[],"categories_segments":[],"categories_sizes":[],"default_left":[0,0,0,0,0,0,0],"id":26,"left_children":[1,3,-1,5,-1,-1,-1],"loss_changes":[1.2877621E2,3.2733757E1,0E0,7.518263E1,0E0,0E0,0E0],"parents":[2147483647,0,0,1,1,3,3],"right_children":[2,4,-1,6,-1,-1,-1],"split_conditions":[4.9581137E-2,9.6029466E-1,-5.905038E-2,-7.108712E-1,6.592915E-2,6.456106E-2,-6.5650195E-2],"split_indices":[1,0,0,1,0,0,0],"split_type":[0,0,0,0,0,0,0],"sum_hessian":[1.443587E2,8.958334E1,5.4775352E1,4.2729164E1,4.6854183E1,2.3424501E1,1.9304665E1],"tree_param":{"num_deleted":"0","num_feature":"6","num_nodes":"7","size_leaf_vector":"1"}},{"base_weights":[1.846624E-2,7.5875485E-1,-5.8557928E-2,6.227662E-2,3.1618342E-1,-6.307043E-2,6.1513704E-1,-1.7584052E-2,1.9501658E-2,3.906923E-2,4.911247E-3],"categories":[],"categories_nodes":[],"categories_segments":[],"categories_sizes":[],"default_left":[0,0,0,0,0,0,0,0,0,0,0],"id":27,"left_children":[1,3,-1,-1,5,7,9,-1,-1,-1,-1],"loss_changes":[1.2790286E2,1.8889503E1,0E0,0E0,5.5063653E0,3.0355625E0,2.2486334E0,0E0,0E0,0E0,0E0],"parents":[2147483647,0,0,1,1,4,4,5,5,6,6],"right_children":[2,4,-1,-1,6,8,10,-1,-1,-1,-1],"split_conditions":[4.9581137E-2,-7.108712E-1,-5.8557928E-2,6.227662E-2,-4.0919057E-1,5.4564846E-1,-1.02509335E-1,-1.7584052E-2,1.9501658E-2,3.906923E-2,4.911247E-3],"split_indices":[1,1,0,0,5,3,1,0,0,0,0],"split_type":[0,0,0,0,0,0,0,0,0,0,0],"sum_hessian":[1.4322527E2,8.8509254E1,5.4716015E1,4.1285576E1,4.722368E1,2.1163986E1,2.605969E1,1.3065546E1,8.09844E0,1.933091E1,6.7287817E0],"tree_param":{"num_deleted":"0","num_feature":"6","num_nodes":"11","size_leaf_vector":"1"}},{"base_weights":[1.3082696E-2,5.790202E-1,-5.037643E-1,5.60081E-2,2.2597395E-1,-1.6358447E-1,-5.702005E-2,8.669564E-1,-7.397095E-1,3.5334542E-1,-5.455941E-2,5.6659993E-2,2.1081362E-2,-5.8601547E-2,-2.2373237E-3,-2.691841E-2,4.873823E-2],"categories":[],"categories_nodes":[],"categories_segments":[],"categories_sizes":[],"default_left":[0,0,0,0,0,0,0,0,0,0,0,0,0,0,0,0,0],"id":28,"left_children":[1,3,5,-1,7,9,-1,11,13,15,-1,-1,-1,-1,-1,-1,-1],"loss_changes":[4.0102383E1,1.2247475E1,1.5335478E1,0E0,2.592717E1,2.334398E1,0E0,2.487959E0,5.0061817E0,1.7980347E1,0E0,0E0,0E0,0E0,0E0,0E0,0E0],"parents":[2147483647,0,0,1,1,2,2,4,4,5,5,7,7,8,8,9,9],"right_children":[2,4,6,-1,8,10,-1,12,14,16,-1,-1,-1,-1,-1,-1,-1],"split_conditions":[-2.3598425E-1,3.3143446E-1,-2.0805182E-1,5.60081E-2,-8.2301533E-1,9.996729E-1,-5.702005E-2,-1.2737652E0,9.6029466E-1,9.6029466E-1,-5.455941E-2,5.6659993E-2,2.1081362E-2,-5.8601547E-2,-2.2373237E-3,-2.691841E-2,4.873823E-2],"split_indices":[5,4,4,0,5,5,0,5,0,0,0,0,0,0,0,0,0],"split_type":[0,0,0,0,0,0,0,0,0,0,0,0,0,0,0,0,0],"sum_hessian":[1.351035E2,6.443172E1,7.067178E1,2.458125E1,3.9850468E1,4.68793E1,2.3792484E1,2.4013494E1,1.5836971E1,3.0500965E1,1.6378334E1,1.4061867E1,9.951629E0,9.340181E0,6.49679E0,1.25811405E1,1.7919825E1],"tree_param":{"num_deleted":"0","num_feature":"6","num_nodes":"17","size_leaf_vector":"1"}},{"base_weights":[-5.900998E-3,4.015147E-1,-7.9664034E-1,8.03096E-1,1.0387488E-1,-5.42436E-2,-5.3471184E-1,4.7689056E-1,5.7709165E-2,-2.910484E-1,4.2751378E-1,-1.8554789E-1,-5.208655E-2,5.389744E-2,3.9397874E-3,1.6371451E-2,-2.4662934E-2,5.3811967E-2,1.4646999E-2,-1.5398792E-2,3.0584618E-2],"categories":[],"categories_nodes":[],"categories_segments":[],"categories_sizes":[],"default_left":[0,0,0,0,0,0,0,0,0,0,0,0,0,0,0,0,0,0,0,0,0],"id":29,"left_children":[1,3,5,7,9,-1,11,13,-1,15,17,19,-1,-1,-1,-1,-1,-1,-1,-1,-1],"loss_changes":[4.347913E1,1.0563929E1,2.884365E0,3.7752686E0,6.810198E0,0E0,4.4119563E0,5.0076127E0,0E0,3.18238E0,2.229938E0,1.8107235E0,0E0,0E0,0E0,0E0,0E0,0E0,0E0,0E0,0E0],"parents":[2147483647,0,0,1,1,2,2,3,3,4,4,6,6,7,7,9,9,10,10,11,11],"right_children":[2,4,6,8,10,-1,12,14,-1,16,18,20,-1,-1,-1,-1,-1,-1,-1,-1,-1],"split_conditions":[2.365593E-1,-7.33742E-1,9.6029466E-1,9.6029466E-1,9.6029466E-1,-5.42436E-2,9.996729E-1,-1.3262613E0,5.7709165E-2,-9.813313E-1,-5.8644813E-1,8.7442845E-1,-5.208655E-2,5.389744E-2,3.9397874E-3,1.6371451E-2,-2.4662934E-2,5.3811967E-2,1.4646999E-2,-1.5398792E-2,3.0584618E-2],"split_indices":[5,5,0,0,0,0,5,5,0,2,5,5,0,0,0,0,0,0,0,0,0],"split_type":[0,0,0,0,0,0,0,0,0,0,0,0,0,0,0,0,0,0,0,0,0],"sum_hessian":[1.3296858E2,8.8079346E1,4.4889233E1,3.677015E1,5.1309193E1,1.9875711E1,2.5013523E1,2.0282974E1,1.6487175E1,2.3154907E1,2.8154285E1,1.5621544E1,9.391979E0,7.400962E0,1.2882013E1,5.5525885E0,1.7602318E1,3.6348343E0,2.4519451E1,1.4073976E1,1.5475677E0],"tree_param":{"num_deleted":"0","num_feature":"6","num_nodes":"21","size_leaf_vector":"1"}},{"base_weights":[3.5293672E-2,5.3497267E-1,-4.3994996E-1,1.5709288E-1,9.374752E-1,-2.175147E-1,-5.373275E-2,5.3236973E-2,-1.1427218E-1,5.9336033E-2,4.3621892E-1,-7.3764706E-1,1.3355295E-1,1.3849652E-2,-1.5575771E-2,-3.146327E-2,3.310753E-2,1.9698946E-2,-4.124735E-2,3.4768898E-2,1.4961377E-3],"categories":[],"categories_nodes":[],"categories_segments":[],"categories_sizes":[],"default_left":[0,0,0,0,0,0,0,0,0,0,0,0,0,0,0,0,0,0,0,0,0],"id":30,"left_children":[1,3,5,7,9,11,-1,-1,13,-1,15,17,19,-1,-1,-1,-1,-1,-1,-1,-1],"loss_changes":[3.203729E1,9.850567E0,9.534136E0,8.768119E0,3.4338303E0,9.682586E0,0E0,0E0,2.2416213E0,0E0,3.3258805E0,2.4296207E0,1.8529255E0,0E0,0E0,0E0,0E0,0E0,0E0,0E0,0E0],"parents":[2147483647,0,0,1,1,2,2,3,3,4,4,5,5,8,8,10,10,11,11,12,12],"right_children":[2,4,6,8,10,12,-1,-1,14,-1,16,18,20,-1,-1,-1,-1,-1,-1,-1,-1],"split_conditions":[-2.3598425E-1,9.6029466E-1,9.996729E-1,-1.3262613E0,-5.8644813E-1,9.6029466E-1,-5.373275E-2,5.3236973E-2,-3.7479287E-1,5.9336033E-2,-5.6450915E-1,-1.5120524E0,-1.259328E0,1.3849652E-2,-1.5575771E-2,-3.146327E-2,3.310753E-2,1.9698946E-2,-4.124735E-2,3.4768898E-2,1.4961377E-3],"split_indices":[5,0,5,5,5,0,0,0,2,0,5,2,2,0,0,0,0,0,0,0,0],"split_type":[0,0,0,0,0,0,0,0,0,0,0,0,0,0,0,0,0,0,0,0,0],"sum_hessian":[1.3292018E2,6.473307E1,6.81871E1,3.4104847E1,3.0628225E1,5.1486225E1,1.670088E1,7.1767654E0,2.6928082E1,1.9543097E1,1.1085129E1,2.0303684E1,3.1182543E1,8.889647E0,1.8038435E1,1.6270107E0,9.4581175E0,1.2025591E0,1.9101124E1,3.9667664E0,2.7215776E1],"tree_param":{"num_deleted":"0","num_feature":"6","num_nodes":"21","size_leaf_vector":"1"}},{"base_weights":[-1.2152592E-2,6.6049385E-1,-3.8066533E-1,2.7041015E-1,1.0808356E0,-1.0526987E-1,-8.232172E-1,5.255705E-2,-7.146643E-2,5.9007168E-2,-8.168309E-3,-5.7649374E-1,2.922865E-1,-5.426648E-1,-5.318761E-2,6.9145495E-3,-2.189039E-2,1.1149249E-2,-3.3201057E-2,2.181439E-2,-3.6774177E-2,-5.1109184E-2,-9.467233E-3],"categories":[],"categories_nodes":[],"categories_segments":[],"categories_sizes":[],"default_left":[0,0,0,0,0,0,0,0,0,0,0,0,0,0,0,0,0,0,0,0,0,0,0],"id":31,"left_children":[1,3,5,7,9,11,13,-1,15,-1,-1,17,19,21,-1,-1,-1,-1,-1,-1,-1,-1,-1],"loss_changes":[3.3123245E1,7.4639454E0,1.0432447E1,6.9797134E0,2.9648209E0,1.0350105E1,1.6470051E0,0E0,1.5149283E0,0E0,0E0,1.911932E0,4.7819366E0,2.7300415E0,0E0,0E0,0E0,0E0,0E0,0E0,0E0,0E0,0E0],"parents":[2147483647,0,0,1,1,2,2,3,3,4,4,5,5,6,6,8,8,11,11,12,12,13,13],"right_children":[2,4,6,8,10,12,14,-1,16,-1,-1,18,20,22,-1,-1,-1,-1,-1,-1,-1,-1,-1],"split_conditions":[-5.401285E-1,9.6029466E-1,4.841541E-1,-1.3262613E0,-5.8644813E-1,9.6029466E-1,9.996729E-1,5.255705E-2,3.3061954E-1,5.9007168E-2,-8.168309E-3,-1.4615076E0,1.405764E0,9.6029466E-1,-5.318761E-2,6.9145495E-3,-2.189039E-2,1.1149249E-2,-3.3201057E-2,2.181439E-2,-3.6774177E-2,-5.1109184E-2,-9.467233E-3],"split_indices":[5,0,5,5,5,0,5,0,3,0,0,2,3,0,0,0,0,0,0,0,0,0,0],"split_type":[0,0,0,0,0,0,0,0,0,0,0,0,0,0,0,0,0,0,0,0,0,0,0],"sum_hessian":[1.3161247E2,4.6303093E1,8.530938E1,2.4868263E1,2.143483E1,5.3348827E1,3.1960552E1,6.9415298E0,1.7926735E1,1.9898117E1,1.5367119E0,2.4206615E1,2.9142214E1,1.6256067E1,1.5704485E1,1.1795468E1,6.131266E0,2.2359304E0,2.1970684E1,2.6065645E1,3.076568E0,6.093294E0,1.0162773E1],"tree_param":{"num_deleted":"0","num_feature":"6","num_nodes":"23","size_leaf_vector":"1"}},{"base_weights":[-2.4999613E-2,-3.393875E-1,2.6174298E-1,-4.5533385E-2,-5.1957476E-1,1.973415E-1,6.8940216E-1,-2.1279897E-1,4.5121655E-1,-6.1326116E-1,1.469887E-1,3.9487523E-1,2.1950295E-2,1.2512653E-4,7.943671E-1,-7.100592E-5,-2.2412557E-2,3.967412E-2,-1.6568093E-2,-3.3914898E-2,-8.8113185E-4,3.4321453E-2,-2.0927677E-2,9.589808E-3,2.9523317E-2,-3.9929938E-2,5.5330815E-3,4.3663066E-2,8.751764E-3],"categories":[],"categories_nodes":[],"categories_segments":[],"categories_sizes":[],"default_left":[0,0,0,0,0,0,0,0,0,0,0,0,0,0,0,0,0,0,0,0,0,0,0,0,0,0,0,0,0],"id":32,"left_children":[1,3,5,7,9,11,13,15,17,19,21,23,25,-1,27,-1,-1,-1,-1,-1,-1,-1,-1,-1,-1,-1,-1,-1,-1],"loss_changes":[1.1500659E1,3.1966453E0,1.7029266E0,2.1079373E0,2.4385147E0,2.050402E0,5.991771E-1,9.3473345E-1,1.982519E0,1.2727842E0,1.9471656E0,9.9466753E-1,2.4569795E0,0E0,2.0039558E-1,0E0,0E0,0E0,0E0,0E0,0E0,0E0,0E0,0E0,0E0,0E0,0E0,0E0,0E0],"parents":[2147483647,0,0,1,1,2,2,3,3,4,4,5,5,6,6,7,7,8,8,9,9,10,10,11,11,12,12,14,14],"right_children":[2,4,6,8,10,12,14,16,18,20,22,24,26,-1,28,-1,-1,-1,-1,-1,-1,-1,-1,-1,-1,-1,-1,-1,-1],"split_conditions":[9.6029466E-1,-4.0517178E-1,1.3690051E0,-6.749149E-1,1.405764E0,-2.0805182E-1,-1.246259E0,-1.1210285E0,2.5894326E-1,1.566028E0,9.539186E-1,-8.720349E-1,-1.3542867E-1,1.2512653E-4,1.405764E0,-7.100592E-5,-2.2412557E-2,3.967412E-2,-1.6568093E-2,-3.3914898E-2,-8.8113185E-4,3.4321453E-2,-2.0927677E-2,9.589808E-3,2.9523317E-2,-3.9929938E-2,5.5330815E-3,4.3663066E-2,8.751764E-3],"split_indices":[0,4,2,4,3,4,3,4,3,4,4,4,4,0,3,0,0,0,0,0,0,0,0,0,0,0,0,0,0],"split_type":[0,0,0,0,0,0,0,0,0,0,0,0,0,0,0,0,0,0,0,0,0,0,0,0,0,0,0,0,0],"sum_hessian":[1.2558935E2,5.981924E1,6.57701E1,2.3213974E1,3.6605267E1,5.843221E1,7.337898E0,1.7793999E1,5.4199758E0,3.216447E1,4.440797E0,2.6892843E1,3.1539366E1,1.1083829E0,6.2295146E0,9.906447E0,7.8875513E0,3.7611E0,1.6588756E0,2.8873093E1,3.2913778E0,2.1634471E0,2.27735E0,1.4165565E1,1.2727279E1,2.2963846E0,2.9242981E1,5.1619487E0,1.067566E0],"tree_param":{"num_deleted":"0","num_feature":"6","num_nodes":"29","size_leaf_vector":"1"}},{"base_weights":[1.409498E-2,4.0948483E-1,-6.1083895E-1,1.0611484E0,8.420339E-2,2.0576505E-1,-1.0165199E0,6.016701E-2,5.849228E-1,9.0278506E-1,-5.364048E-1,9.1135687E-1,-4.866879E-2,-7.1405804E-1,-5.5444133E-2,3.4582883E-4,4.1144304E-2,5.6461312E-2,2.764753E-2,5.528281E-3,-4.0371563E-2,5.9907343E-2,1.8245319E-2,1.4672607E-2,-5.244411E-2],"categories":[],"categories_nodes":[],"categories_segments":[],"categories_sizes":[],"default_left":[0,0,0,0,0,0,0,0,0,0,0,0,0,0,0,0,0,0,0,0,0,0,0,0,0],"id":33,"left_children":[1,3,5,7,9,11,13,-1,15,17,19,21,-1,23,-1,-1,-1,-1,-1,-1,-1,-1,-1,-1,-1],"loss_changes":[3.23049E1,1.6880253E1,1.6996037E1,1.0952549E0,2.8164324E1,1.5571841E1,1.5866089E-1,0E0,1.1021938E0,1.2663689E0,5.6333656E0,1.3742495E0,0E0,3.940115E0,0E0,0E0,0E0,0E0,0E0,0E0,0E0,0E0,0E0,0E0,0E0],"parents":[2147483647,0,0,1,1,2,2,3,3,4,4,5,5,6,6,8,8,9,9,10,10,11,11,13,13],"right_children":[2,4,6,8,10,12,14,-1,16,18,20,22,-1,24,-1,-1,-1,-1,-1,-1,-1,-1,-1,-1,-1],"split_conditions":[1.11691155E-1,-1.1467919E-1,-1.1936517E0,-4.0517178E-1,-8.2301533E-1,9.996729E-1,3.6115772E-1,6.016701E-2,-2.7030024E-1,1.3170344E0,3.3143446E-1,-1.4530201E0,-4.866879E-2,-6.645402E-1,-5.5444133E-2,3.4582883E-4,4.1144304E-2,5.6461312E-2,2.764753E-2,5.528281E-3,-4.0371563E-2,5.9907343E-2,1.8245319E-2,1.4672607E-2,-5.244411E-2],"split_indices":[5,4,4,4,5,5,5,0,4,4,4,4,0,4,0,0,0,0,0,0,0,0,0,0,0],"split_type":[0,0,0,0,0,0,0,0,0,0,0,0,0,0,0,0,0,0,0,0,0,0,0,0,0],"sum_hessian":[1.287278E2,7.9055115E1,4.9672676E1,2.5568783E1,5.3486336E1,1.6650105E1,3.302257E1,1.8514025E1,7.0547566E0,2.286834E1,3.0617996E1,1.05588455E1,6.091258E0,9.767571E0,2.3255E1,2.3575058E0,4.697251E0,1.2530014E1,1.03383255E1,9.214352E0,2.1403645E1,6.1425138E0,4.4163322E0,2.4671876E0,7.3003836E0],"tree_param":{"num_deleted":"0","num_feature":"6","num_nodes":"25","size_leaf_vector":"1"}},{"base_weights":[4.0033028E-2,6.925423E-1,-5.6622174E-2,5.991679E-2,2.7887693E-1,7.233297E-1,1.0206228E-2,3.957537E-2,-7.0314743E-3,-7.9031205E-3,1.4556645E-2],"categories":[],"categories_nodes":[],"categories_segments":[],"categories_sizes":[],"default_left":[0,0,0,0,0,0,0,0,0,0,0],"id":34,"left_children":[1,3,-1,-1,5,7,9,-1,-1,-1,-1],"loss_changes":[9.720812E1,1.6737495E1,0E0,0E0,5.507949E0,1.1354475E0,1.4547287E0,0E0,0E0,0E0,0E0],"parents":[2147483647,0,0,1,1,4,4,5,5,6,6],"right_children":[2,4,-1,-1,6,8,10,-1,-1,-1,-1],"split_conditions":[4.9581137E-2,-7.108712E-1,-5.6622174E-2,5.991679E-2,-4.36296E-1,-1.1156872E-3,4.0229586E-1,3.957537E-2,-7.0314743E-3,-7.9031205E-3,1.4556645E-2],"split_indices":[1,1,0,0,4,1,3,0,0,0,0],"split_type":[0,0,0,0,0,0,0,0,0,0,0],"sum_hessian":[1.2503573E2,8.059317E1,4.4442562E1,3.5405537E1,4.518763E1,1.638697E1,2.8800661E1,1.5266133E1,1.1208363E0,1.828545E1,1.0515212E1],"tree_param":{"num_deleted":"0","num_feature":"6","num_nodes":"11","size_leaf_vector":"1"}},{"base_weights":[3.039657E-4,2.6389277E-1,-7.4096197E-1,-8.456212E-2,6.0484284E-1,-4.6565133E-1,-5.1984724E-2,5.0460983E-2,-2.6617768E-1,5.7369698E-2,2.5352308E-1,-5.1280927E-2,-4.191999E-2,1.6131377E-3,-1.751133E-2,1.9373117E-2,-3.3376615E-2,-2.784725E-2,1.545015E-2],"categories":[],"categories_nodes":[],"categories_segments":[],"categories_sizes":[],"default_left":[0,0,0,0,0,0,0,0,0,0,0,0,0,0,0,0,0,0,0],"id":35,"left_children":[1,3,5,7,9,11,-1,-1,13,-1,15,-1,17,-1,-1,-1,-1,-1,-1],"loss_changes":[2.4987024E1,1.1258881E1,2.2748165E0,9.710796E0,8.821064E0,4.528941E0,0E0,0E0,1.0536466E0,0E0,3.996544E0,0E0,2.342917E0,0E0,0E0,0E0,0E0,0E0,0E0],"parents":[2147483647,0,0,1,1,2,2,3,3,4,4,5,5,8,8,10,10,12,12],"right_children":[2,4,6,8,10,12,-1,-1,14,-1,16,-1,18,-1,-1,-1,-1,-1,-1],"split_conditions":[3.759642E-1,9.6029466E-1,9.996729E-1,-1.3262613E0,-5.8644813E-1,9.6029466E-1,-5.1984724E-2,5.0460983E-2,-9.813313E-1,5.7369698E-2,1.3340877E0,-5.1280927E-2,1.1559065E-1,1.6131377E-3,-1.751133E-2,1.9373117E-2,-3.3376615E-2,-2.784725E-2,1.545015E-2],"split_indices":[5,0,5,5,5,0,0,0,2,0,3,0,3,0,0,0,0,0,0],"split_type":[0,0,0,0,0,0,0,0,0,0,0,0,0,0,0,0,0,0,0],"sum_hessian":[1.25882484E2,9.333665E1,3.2545837E1,4.6532192E1,4.6804455E1,1.8268457E1,1.4277379E1,5.977248E0,4.0554943E1,1.750505E1,2.9299402E1,7.2573366E0,1.1011122E1,9.047011E0,3.1507933E1,2.6085407E1,3.2139947E0,4.224311E0,6.7868104E0],"tree_param":{"num_deleted":"0","num_feature":"6","num_nodes":"19","size_leaf_vector":"1"}},{"base_weights":[-4.1920156E-3,4.699701E-1,-3.846149E-1,5.164444E-2,1.0769378E-1,3.7202206E-1,-6.690896E-1,6.020521E-1,-6.621684E-1,9.995554E-1,-4.7380634E-2,-3.5374978E-1,-5.4241832E-2,4.049343E-3,5.362463E-2,-5.5176903E-2,1.6453225E-3,2.204244E-2,6.0099103E-2,1.946887E-2,-4.9552053E-2],"categories":[],"categories_nodes":[],"categories_segments":[],"categories_sizes":[],"default_left":[0,0,0,0,0,0,0,0,0,0,0,0,0,0,0,0,0,0,0,0,0],"id":36,"left_children":[1,3,5,-1,7,9,11,13,15,17,-1,19,-1,-1,-1,-1,-1,-1,-1,-1,-1],"loss_changes":[2.1894758E1,1.0908613E1,1.4743654E1,0E0,1.3336426E1,1.6716976E1,6.079275E0,5.116015E0,4.2605085E0,9.847574E-1,0E0,1.436533E1,0E0,0E0,0E0,0E0,0E0,0E0,0E0,0E0,0E0],"parents":[2147483647,0,0,1,1,2,2,4,4,5,5,6,6,7,7,8,8,9,9,11,11],"right_children":[2,4,6,-1,8,10,12,14,16,18,-1,20,-1,-1,-1,-1,-1,-1,-1,-1,-1],"split_conditions":[-2.8904334E-1,2.6918605E-1,-1.1729022E0,5.164444E-2,-8.2301533E-1,9.996729E-1,3.6115772E-1,9.6029466E-1,9.6029466E-1,-3.8614345E-1,-4.7380634E-2,-1.1467919E-1,-5.4241832E-2,4.049343E-3,5.362463E-2,-5.5176903E-2,1.6453225E-3,2.204244E-2,6.0099103E-2,1.946887E-2,-4.9552053E-2],"split_indices":[5,4,4,0,5,5,5,0,0,3,0,4,0,0,0,0,0,0,0,0,0],"split_type":[0,0,0,0,0,0,0,0,0,0,0,0,0,0,0,0,0,0,0,0,0],"sum_hessian":[1.19377785E2,5.3036846E1,6.6340935E1,2.0042673E1,3.2994175E1,1.8042992E1,4.8297943E1,2.0224936E1,1.276924E1,1.2392478E1,5.650514E0,2.851812E1,1.9779825E1,1.0152291E1,1.0072643E1,7.4505305E0,5.31871E0,4.140987E0,8.251492E0,1.334542E1,1.51727E1],"tree_param":{"num_deleted":"0","num_feature":"6","num_nodes":"21","size_leaf_vector":"1"}},{"base_weights":[1.2447134E-3,-3.157662E-1,2.844511E-1,1.342397E-2,-5.189692E-1,6.365258E-1,1.9505756E-1,1.9445302E-1,-2.815173E-1,-6.0743237E-1,2.7072571E-2,5.7137825E-2,3.8145848E-2,-3.782437E-1,2.4713735E-1,-4.3865084E-4,3.5421062E-2,2.8897202E-2,-2.8525446E-2,-1.542713E-2,-3.860489E-2,1.8587632E-2,-3.02836E-2,-1.7594477E-2,2.070064E-2,-3.0268893E-2,1.0644945E-2,1.7404625E-2,-7.6988675E-3],"categories":[],"categories_nodes":[],"categories_segments":[],"categories_sizes":[],"default_left":[0,0,0,0,0,0,0,0,0,0,0,0,0,0,0,0,0,0,0,0,0,0,0,0,0,0,0,0,0],"id":37,"left_children":[1,3,5,7,9,11,13,15,17,19,21,23,-1,25,27,-1,-1,-1,-1,-1,-1,-1,-1,-1,-1,-1,-1,-1,-1],"loss_changes":[1.0676285E1,3.7604017E0,1.8525081E0,1.2502811E0,1.6935883E0,8.5534334E-1,1.6320062E0,1.5172706E0,2.5464358E0,1.2344446E0,1.489682E0,6.243674E-1,0E0,7.581167E-1,1.9909732E0,0E0,0E0,0E0,0E0,0E0,0E0,0E0,0E0,0E0,0E0,0E0,0E0,0E0,0E0],"parents":[2147483647,0,0,1,1,2,2,3,3,4,4,5,5,6,6,7,7,8,8,9,9,10,10,11,11,13,13,14,14],"right_children":[2,4,6,8,10,12,14,16,18,20,22,24,-1,26,28,-1,-1,-1,-1,-1,-1,-1,-1,-1,-1,-1,-1,-1,-1],"split_conditions":[9.6029466E-1,-4.0517178E-1,-1.1936517E0,2.5894326E-1,1.3340877E0,-4.5781973E-1,-8.9278436E-1,-2.4279085E-1,-1.3351454E0,-4.000653E-1,1.1925375E0,-1.494519E0,3.8145848E-2,6.173247E-1,1.1190588E0,-4.3865084E-4,3.5421062E-2,2.8897202E-2,-2.8525446E-2,-1.542713E-2,-3.860489E-2,1.8587632E-2,-3.02836E-2,-1.7594477E-2,2.070064E-2,-3.0268893E-2,1.0644945E-2,1.7404625E-2,-7.6988675E-3],"split_indices":[0,4,4,3,3,3,4,3,2,2,4,4,0,3,3,0,0,0,0,0,0,0,0,0,0,0,0,0,0],"split_type":[0,0,0,0,0,0,0,0,0,0,0,0,0,0,0,0,0,0,0,0,0,0,0,0,0,0,0,0,0],"sum_hessian":[1.1691627E2,5.51115E1,6.1804768E1,2.1391336E1,3.372016E1,1.1275589E1,5.052918E1,1.3466546E1,7.9247904E0,2.8922115E1,4.798047E0,2.279272E0,8.996317E0,3.686369E0,4.684281E1,1.0355036E1,3.1115105E0,1.7425576E0,6.182233E0,1.1294619E1,1.7627497E1,3.3730786E0,1.4249684E0,1.0685441E0,1.2107278E0,2.645724E0,1.0406449E0,3.7529366E1,9.313447E0],"tree_param":{"num_deleted":"0","num_feature":"6","num_nodes":"29","size_leaf_vector":"1"}},{"base_weights":[-3.2601312E-3,5.8907425E-1,-5.573019E-2,5.864171E-2,1.03597134E-1,6.068373E-1,-1.4376013E-1,1.656484E-2,4.54227E-2,-1.1076903E-2,1.9474873E-2],"categories":[],"categories_nodes":[],"categories_segments":[],"categories_sizes":[],"default_left":[0,0,0,0,0,0,0,0,0,0,0],"id":38,"left_children":[1,3,-1,-1,5,7,9,-1,-1,-1,-1],"loss_changes":[7.6821144E1,2.1453451E1,0E0,0E0,5.397548E0,8.833151E-1,1.3060849E0,0E0,0E0,0E0,0E0],"parents":[2147483647,0,0,1,1,4,4,5,5,6,6],"right_children":[2,4,-1,-1,6,8,10,-1,-1,-1,-1],"split_conditions":[4.9581137E-2,-7.108712E-1,-5.573019E-2,5.864171E-2,-4.36296E-1,-9.4465804E-1,1.566028E0,1.656484E-2,4.54227E-2,-1.1076903E-2,1.9474873E-2],"split_indices":[1,1,0,0,4,4,4,0,0,0,0],"split_type":[0,0,0,0,0,0,0,0,0,0,0],"sum_hessian":[1.1470113E2,7.5128426E1,3.9572712E1,3.3468513E1,4.1659912E1,1.3249982E1,2.840993E1,8.020917E0,5.2290645E0,2.5303816E1,3.1061134E0],"tree_param":{"num_deleted":"0","num_feature":"6","num_nodes":"11","size_leaf_vector":"1"}},{"base_weights":[-4.354107E-2,2.9119438E-1,-5.9369445E-1,5.6429364E-2,3.4604926E-2,2.2865456E-1,-5.112326E-2,-4.9253675E-1,6.1940503E-1,8.8458663E-1,-4.587716E-2,3.3302225E-2,-4.7043286E-2,5.0986804E-2,-7.464729E-3,5.4068845E-3,5.720563E-2],"categories":[],"categories_nodes":[],"categories_segments":[],"categories_sizes":[],"default_left":[0,0,0,0,0,0,0,0,0,0,0,0,0,0,0,0,0],"id":39,"left_children":[1,3,5,-1,7,9,-1,11,13,15,-1,-1,-1,-1,-1,-1,-1],"loss_changes":[1.9596292E1,1.419485E1,1.4417889E1,0E0,1.625493E1,1.1790968E1,0E0,1.5050179E1,7.836746E0,1.850524E0,0E0,0E0,0E0,0E0,0E0,0E0,0E0],"parents":[2147483647,0,0,1,1,2,2,4,4,5,5,7,7,8,8,9,9],"right_children":[2,4,6,-1,8,10,-1,12,14,16,-1,-1,-1,-1,-1,-1,-1],"split_conditions":[1.1772109E-1,-4.2592126E-1,-1.1936517E0,5.6429364E-2,9.6029466E-1,9.208266E-1,-5.112326E-2,-1.1279148E0,-3.9836365E-1,9.6029466E-1,-4.587716E-2,3.3302225E-2,-4.7043286E-2,5.0986804E-2,-7.464729E-3,5.4068845E-3,5.720563E-2],"split_indices":[5,4,4,0,0,5,0,5,5,0,0,0,0,0,0,0,0],"split_type":[0,0,0,0,0,0,0,0,0,0,0,0,0,0,0,0,0],"sum_hessian":[1.0447269E2,6.5245445E1,3.922725E1,1.4505989E1,5.0739452E1,1.3603502E1,2.5623745E1,2.6768219E1,2.3971235E1,8.797321E0,4.8061814E0,7.332863E0,1.9435356E1,1.5547619E1,8.423616E0,2.5587463E0,6.238575E0],"tree_param":{"num_deleted":"0","num_feature":"6","num_nodes":"17","size_leaf_vector":"1"}},{"base_weights":[2.0998793E-2,4.7509545E-1,-4.1884717E-1,9.090386E-1,1.4944558E-1,-4.815308E-3,-9.841157E-1,6.7381907E-1,5.619065E-2,9.006211E-1,-3.4343386E-1,6.777269E-1,-7.4675626E-1,-4.947086E-1,-5.3815104E-2,5.3499844E-2,4.2623123E-3,5.139801E-2,2.319505E-2,-5.716867E-2,2.0510098E-2,-2.0741709E-3,5.6666344E-2,-1.0400767E-2,-4.9827974E-2,-3.922272E-2,1.6726084E-2],"categories":[],"categories_nodes":[],"categories_segments":[],"categories_sizes":[],"default_left":[0,0,0,0,0,0,0,0,0,0,0,0,0,0,0,0,0,0,0,0,0,0,0,0,0,0,0],"id":40,"left_children":[1,3,5,7,9,11,13,15,-1,17,19,21,23,25,-1,-1,-1,-1,-1,-1,-1,-1,-1,-1,-1,-1,-1],"loss_changes":[2.2074203E1,7.5455008E0,1.314023E1,4.100933E-1,1.2249476E1,1.7432558E1,5.3865814E-1,3.0627556E0,0E0,2.4903011E-1,1.2644935E1,5.9233065E0,2.0120783E0,1.6112009E0,0E0,0E0,0E0,0E0,0E0,0E0,0E0,0E0,0E0,0E0,0E0,0E0,0E0],"parents":[2147483647,0,0,1,1,2,2,3,3,4,4,5,5,6,6,7,7,9,9,10,10,11,11,12,12,13,13],"right_children":[2,4,6,8,10,12,14,16,-1,18,20,22,24,26,-1,-1,-1,-1,-1,-1,-1,-1,-1,-1,-1,-1,-1],"split_conditions":[-2.3598425E-1,3.3143446E-1,-4.36296E-1,9.6029466E-1,-1.1658353E0,6.155028E-1,-2.0805182E-1,-2.910497E-1,5.619065E-2,1.4726554E0,9.6029466E-1,9.6029466E-1,9.996729E-1,-2.7030024E-1,-5.3815104E-2,5.3499844E-2,4.2623123E-3,5.139801E-2,2.319505E-2,-5.716867E-2,2.0510098E-2,-2.0741709E-3,5.6666344E-2,-1.0400767E-2,-4.9827974E-2,-3.922272E-2,1.6726084E-2],"split_indices":[5,4,4,0,5,5,4,4,0,4,0,0,5,4,0,0,0,0,0,0,0,0,0,0,0,0,0],"split_type":[0,0,0,0,0,0,0,0,0,0,0,0,0,0,0,0,0,0,0,0,0,0,0,0,0,0,0],"sum_hessian":[1.0852249E2,5.335681E1,5.5165676E1,2.2106905E1,3.1249907E1,3.2424683E1,2.2740993E1,1.25259285E1,9.580977E0,1.2053081E1,1.9196827E1,1.6933449E1,1.5491234E1,4.6137114E0,1.8127283E1,6.9977083E0,5.5282207E0,8.283852E0,3.7692292E0,9.061471E0,1.0135356E1,6.91941E0,1.0014039E1,5.4880614E0,1.0003172E1,3.4590595E0,1.1546516E0],"tree_param":{"num_deleted":"0","num_feature":"6","num_nodes":"27","size_leaf_vector":"1"}},{"base_weights":[2.7093818E-2,3.7976214E-1,-5.521295E-1,4.008747E-2,6.9983345E-1,-3.3506152E-1,-5.018263E-2,4.8115037E-2,-1.6261537E-1,5.552694E-2,3.1340948E-1,-7.523063E-1,-1.169515E-2,4.450866E-3,-1.4718275E-2,1.1374186E-3,4.2762447E-2,-1.6463129E-2,-4.371726E-2,-6.7685777E-3,3.657223E-2],"categories":[],"categories_nodes":[],"categories_segments":[],"categories_sizes":[],"default_left":[0,0,0,0,0,0,0,0,0,0,0,0,0,0,0,0,0,0,0,0,0],"id":41,"left_children":[1,3,5,7,9,11,-1,-1,13,-1,15,17,19,-1,-1,-1,-1,-1,-1,-1,-1],"loss_changes":[2.1861408E1,7.1989603E0,3.6351442E0,6.383291E0,5.073927E0,3.8858633E0,0E0,0E0,9.5988655E-1,0E0,2.9721456E0,3.6198282E-1,1.6870356E0,0E0,0E0,0E0,0E0,0E0,0E0,0E0,0E0],"parents":[2147483647,0,0,1,1,2,2,3,3,4,4,5,5,8,8,10,10,11,11,12,12],"right_children":[2,4,6,8,10,12,-1,-1,14,-1,16,18,20,-1,-1,-1,-1,-1,-1,-1,-1],"split_conditions":[8.8787794E-2,9.6029466E-1,9.996729E-1,-1.3262613E0,-5.8644813E-1,9.6029466E-1,-5.018263E-2,4.8115037E-2,-6.780621E-1,5.552694E-2,6.3610446E-1,2.365593E-1,8.7442845E-1,4.450866E-3,-1.4718275E-2,1.1374186E-3,4.2762447E-2,-1.6463129E-2,-4.371726E-2,-6.7685777E-3,3.657223E-2],"split_indices":[5,0,5,5,5,0,0,0,2,0,2,5,5,0,0,0,0,0,0,0,0],"split_type":[0,0,0,0,0,0,0,0,0,0,0,0,0,0,0,0,0,0,0,0,0],"sum_hessian":[1.0499371E2,6.5473564E1,3.952015E1,3.2309963E1,3.31636E1,2.7865826E1,1.1654321E1,5.146805E0,2.7163158E1,1.5168302E1,1.7995298E1,1.1587635E1,1.6278193E1,9.446126E0,1.7717033E1,1.2390563E1,5.6047363E0,3.4223146E0,8.16532E0,1.4656787E1,1.6214051E0],"tree_param":{"num_deleted":"0","num_feature":"6","num_nodes":"21","size_leaf_vector":"1"}},{"base_weights":[2.3266291E-2,6.292918E-1,-5.4823477E-2,8.6330205E-2,5.9631385E-2,5.8419492E-2,-6.1206818E-2],"categories":[],"categories_nodes":[],"categories_segments":[],"categories_sizes":[],"default_left":[0,0,0,0,0,0,0],"id":42,"left_children":[1,3,-1,5,-1,-1,-1],"loss_changes":[7.179782E1,2.0887495E1,0E0,5.2510563E1,0E0,0E0,0E0],"parents":[2147483647,0,0,1,1,3,3],"right_children":[2,4,-1,6,-1,-1,-1],"split_conditions":[4.9581137E-2,9.6029466E-1,-5.4823477E-2,-7.108712E-1,5.9631385E-2,5.8419492E-2,-6.1206818E-2],"split_indices":[1,0,0,1,0,0,0],"split_type":[0,0,0,0,0,0,0],"sum_hessian":[1.0378785E2,6.7625465E1,3.616238E1,3.5022697E1,3.260277E1,1.9242487E1,1.5780211E1],"tree_param":{"num_deleted":"0","num_feature":"6","num_nodes":"7","size_leaf_vector":"1"}},{"base_weights":[-5.0056195E-3,5.522134E-1,-5.4522987E-2,-2.7358554E-2,5.917078E-2,5.7927843E-2,-6.045695E-2],"categories":[],"categories_nodes":[],"categories_segments":[],"categories_sizes":[],"default_left":[0,0,0,0,0,0,0],"id":43,"left_children":[1,3,-1,5,-1,-1,-1],"loss_changes":[6.266072E1,2.5078009E1,0E0,5.2791637E1,0E0,0E0,0E0],"parents":[2147483647,0,0,1,1,3,3],"right_children":[2,4,-1,6,-1,-1,-1],"split_conditions":[4.9581137E-2,9.6029466E-1,-5.4522987E-2,-7.108712E-1,5.917078E-2,5.7927843E-2,-6.045695E-2],"split_indices":[1,0,0,1,0,0,0],"split_type":[0,0,0,0,0,0,0],"sum_hessian":[1.01604004E2,6.746304E1,3.4140965E1,3.5668636E1,3.1794405E1,1.781298E1,1.7855656E1],"tree_param":{"num_deleted":"0","num_feature":"6","num_nodes":"7","size_leaf_vector":"1"}},{"base_weights":[1.5731044E-2,5.848731E-1,-5.4014742E-2,5.5922296E-2,1.9222377E-1,-3.280374E-2,2.854975E-1,5.1151407E-3,2.6772475E-2],"categories":[],"categories_nodes":[],"categories_segments":[],"categories_sizes":[],"default_left":[0,0,0,0,0,0,0,0,0],"id":44,"left_children":[1,3,-1,-1,5,-1,7,-1,-1],"loss_changes":[5.9539497E1,1.294335E1,0E0,0E0,3.1456401E0,0E0,1.519551E0,0E0,0E0],"parents":[2147483647,0,0,1,1,4,4,6,6],"right_children":[2,4,-1,-1,6,-1,8,-1,-1],"split_conditions":[4.9581137E-2,-7.108712E-1,-5.4014742E-2,5.5922296E-2,-1.0643252E0,-3.280374E-2,3.659327E-2,5.1151407E-3,2.6772475E-2],"split_indices":[1,1,0,0,5,0,5,0,0],"split_type":[0,0,0,0,0,0,0,0,0],"sum_hessian":[9.3434425E1,6.1806202E1,3.1628225E1,2.5417622E1,3.638858E1,3.0069883E0,3.338159E1,2.0076458E1,1.3305135E1],"tree_param":{"num_deleted":"0","num_feature":"6","num_nodes":"9","size_leaf_vector":"1"}},{"base_weights":[5.7136132E-3,2.6995957E-1,-5.9083575E-1,-5.5380143E-2,5.929928E-1,-4.7479358E-2,-3.223551E-1,4.621611E-2,-2.4831325E-1,5.349962E-2,2.530645E-1,3.8536586E-2,-4.588718E-2,-1.5615143E-2,7.199927E-3,-3.1233585E-2,1.7784515E-2,-9.939573E-3,9.624294E-3],"categories":[],"categories_nodes":[],"categories_segments":[],"categories_sizes":[],"default_left":[0,0,0,0,0,0,0,0,0,0,0,0,0,0,0,0,0,0,0],"id":45,"left_children":[1,3,5,7,9,-1,11,-1,13,-1,15,17,-1,-1,-1,-1,-1,-1,-1],"loss_changes":[1.4891982E1,6.9119153E0,2.4874554E0,6.5664854E0,5.068609E0,0E0,3.9251277E0,0E0,7.679161E-1,0E0,2.072144E0,4.8512995E-1,0E0,0E0,0E0,0E0,0E0,0E0,0E0],"parents":[2147483647,0,0,1,1,2,2,3,3,4,4,6,6,8,8,10,10,11,11],"right_children":[2,4,6,8,10,-1,12,-1,14,-1,16,18,-1,-1,-1,-1,-1,-1,-1],"split_conditions":[2.365593E-1,9.6029466E-1,9.6029466E-1,-1.3262613E0,-5.8644813E-1,-4.7479358E-2,9.996729E-1,4.621611E-2,1.405764E0,5.349962E-2,-5.6450915E-1,1.1559065E-1,-4.588718E-2,-1.5615143E-2,7.199927E-3,-3.1233585E-2,1.7784515E-2,-9.939573E-3,9.624294E-3],"split_indices":[5,0,0,5,5,0,5,0,3,0,5,3,0,0,0,0,0,0,0],"split_type":[0,0,0,0,0,0,0,0,0,0,0,0,0,0,0,0,0,0,0],"sum_hessian":[9.2459015E1,6.445545E1,2.8003557E1,3.252589E1,3.1929564E1,1.0900761E1,1.7102795E1,4.727754E0,2.7798138E1,1.2392401E1,1.9537165E1,1.1230662E1,5.8721333E0,2.4075195E1,3.7229412E0,1.5126768E0,1.8024487E1,4.304135E0,6.9265275E0],"tree_param":{"num_deleted":"0","num_feature":"6","num_nodes":"19","size_leaf_vector":"1"}},{"base_weights":[-3.3352503E-3,1.8722379E-1,-6.7323977E-1,9.0716755E-1,-1.1600577E-1,-1.2349889E-1,-5.0135415E-2,1.0265357E0,4.22055E-1,5.514608E-1,-5.6655866E-1,5.4486436E-1,-4.2479407E-2,5.3954955E-2,1.8275764E-2,3.4903735E-2,-1.4052312E-2,4.72774E-2,4.0499154E-3,-1.1732308E-3,-4.391874E-2,-8.048403E-3,4.6555262E-2],"categories":[],"categories_nodes":[],"categories_segments":[],"categories_sizes":[],"default_left":[0,0,0,0,0,0,0,0,0,0,0,0,0,0,0,0,0,0,0,0,0,0,0],"id":46,"left_children":[1,3,5,7,9,11,-1,13,15,17,19,21,-1,-1,-1,-1,-1,-1,-1,-1,-1,-1,-1],"loss_changes":[1.2188458E1,1.633592E1,3.7057638E0,8.492222E-1,1.6311337E1,4.861448E0,0E0,1.988697E-1,1.3745177E0,3.9922876E0,5.441511E0,1.6026002E0,0E0,0E0,0E0,0E0,0E0,0E0,0E0,0E0,0E0,0E0,0E0],"parents":[2147483647,0,0,1,1,2,2,3,3,4,4,5,5,7,7,8,8,9,9,10,10,11,11],"right_children":[2,4,6,8,10,12,-1,14,16,18,20,22,-1,-1,-1,-1,-1,-1,-1,-1,-1,-1,-1],"split_conditions":[4.841541E-1,-4.0517178E-1,-1.1936517E0,2.365593E-1,-7.33742E-1,9.208266E-1,-5.0135415E-2,1.405764E0,-7.994118E-1,1.2444112E0,2.4843657E-1,2.9566078E-2,-4.2479407E-2,5.3954955E-2,1.8275764E-2,3.4903735E-2,-1.4052312E-2,4.72774E-2,4.0499154E-3,-1.1732308E-3,-4.391874E-2,-8.048403E-3,4.6555262E-2],"split_indices":[5,4,4,5,5,5,0,3,4,4,4,2,0,0,0,0,0,0,0,0,0,0,0],"split_type":[0,0,0,0,0,0,0,0,0,0,0,0,0,0,0,0,0,0,0,0,0,0,0],"sum_hessian":[9.3491264E1,7.334756E1,2.0143707E1,2.1147161E1,5.2200397E1,8.063704E0,1.2080003E1,1.6075499E1,5.071663E0,2.0946087E1,3.125431E1,4.328719E0,3.7349844E0,1.4305475E1,1.7700229E0,3.6470664E0,1.4245965E0,1.0848726E1,1.0097361E1,1.179174E1,1.946257E1,1.7372468E0,2.5914726E0],"tree_param":{"num_deleted":"0","num_feature":"6","num_nodes":"23","size_leaf_vector":"1"}},{"base_weights":[3.6245668E-3,2.7988502E-1,-5.019609E-1,5.373733E-2,5.324918E-2,2.3537053E-1,-9.025199E-1,-4.5677593E-1,5.706876E-1,8.0033827E-1,-4.2307E-2,-5.364343E-1,-5.1140286E-2,4.4196326E-2,-3.747115E-2,5.3401884E-2,2.72887E-3,1.2837242E-3,5.287924E-2,2.080186E-2,-4.5899313E-2],"categories":[],"categories_nodes":[],"categories_segments":[],"categories_sizes":[],"default_left":[0,0,0,0,0,0,0,0,0,0,0,0,0,0,0,0,0,0,0,0,0],"id":47,"left_children":[1,3,5,-1,7,9,11,13,15,17,-1,19,-1,-1,-1,-1,-1,-1,-1,-1,-1],"loss_changes":[1.2959039E1,1.0749443E1,9.895657E0,0E0,1.2857365E1,8.213816E0,3.9595222E-1,1.0311733E1,6.1376767E0,1.6898384E0,0E0,3.0741858E0,0E0,0E0,0E0,0E0,0E0,0E0,0E0,0E0,0E0],"parents":[2147483647,0,0,1,1,2,2,4,4,5,5,6,6,7,7,8,8,9,9,11,11],"right_children":[2,4,6,-1,8,10,12,14,16,18,-1,20,-1,-1,-1,-1,-1,-1,-1,-1,-1],"split_conditions":[1.1772109E-1,-4.2592126E-1,-1.1936517E0,5.373733E-2,9.6029466E-1,9.996729E-1,3.6115772E-1,-1.3262613E0,-5.8644813E-1,9.6029466E-1,-4.2307E-2,-6.645402E-1,-5.1140286E-2,4.4196326E-2,-3.747115E-2,5.3401884E-2,2.72887E-3,1.2837242E-3,5.287924E-2,2.080186E-2,-4.5899313E-2],"split_indices":[5,4,4,0,0,5,5,5,5,0,0,4,0,0,0,0,0,0,0,0,0],"split_type":[0,0,0,0,0,0,0,0,0,0,0,0,0,0,0,0,0,0,0,0,0],"sum_hessian":[9.077523E1,5.8989037E1,3.1786196E1,1.2257417E1,4.6731617E1,1.1334514E1,2.0451681E1,2.3593437E1,2.3138182E1,7.6159935E0,3.7185202E0,6.4082036E0,1.4043478E1,3.8652291E0,1.9728209E1,1.1238649E1,1.1899531E1,2.1727746E0,5.443219E0,1.8069974E0,4.6012063E0],"tree_param":{"num_deleted":"0","num_feature":"6","num_nodes":"21","size_leaf_vector":"1"}},{"base_weights":[-1.5276217E-2,5.2869225E-1,-5.319324E-2,-4.1171234E-2,5.7231467E-2,5.5720318E-2,-5.8690775E-2],"categories":[],"categories_nodes":[],"categories_segments":[],"categories_sizes":[],"default_left":[0,0,0,0,0,0,0],"id":48,"left_children":[1,3,-1,5,-1,-1,-1],"loss_changes":[5.0455532E1,2.0496834E1,0E0,4.2180824E1,0E0,0E0,0E0],"parents":[2147483647,0,0,1,1,3,3],"right_children":[2,4,-1,6,-1,-1,-1],"split_conditions":[4.9581137E-2,9.6029466E-1,-5.319324E-2,-7.108712E-1,5.7231467E-2,5.5720318E-2,-5.8690775E-2],"split_indices":[1,0,0,1,0,0,0],"split_type":[0,0,0,0,0,0,0],"sum_hessian":[8.647046E1,5.7261265E1,2.9209194E1,3.0227766E1,2.7033499E1,1.4970377E1,1.5257389E1],"tree_param":{"num_deleted":"0","num_feature":"6","num_nodes":"7","size_leaf_vector":"1"}},{"base_weights":[4.029089E-3,5.4382414E-1,-5.3016968E-2,5.475504E-2,1.5511236E-1,-1.5788548E-1,4.2533657E-1,1.7816393E-2,-1.2941566E-2,2.5727397E-2,-8.919139E-3],"categories":[],"categories_nodes":[],"categories_segments":[],"categories_sizes":[],"default_left":[0,0,0,0,0,0,0,0,0,0,0],"id":49,"left_children":[1,3,-1,-1,5,7,9,-1,-1,-1,-1],"loss_changes":[4.9803104E1,1.2153774E1,0E0,0E0,3.0183792E0,9.692715E-1,1.1149213E0,0E0,0E0,0E0,0E0],"parents":[2147483647,0,0,1,1,4,4,5,5,6,6],"right_children":[2,4,-1,-1,6,8,10,-1,-1,-1,-1],"split_conditions":[4.9581137E-2,-7.108712E-1,-5.3016968E-2,5.475504E-2,-4.0919057E-1,-9.5955384E-1,-1.1156872E-3,1.7816393E-2,-1.2941566E-2,2.5727397E-2,-8.919139E-3],"split_indices":[1,1,0,0,5,3,1,0,0,0,0],"split_type":[0,0,0,0,0,0,0,0,0,0,0],"sum_hessian":[8.467967E1,5.650977E1,2.8169899E1,2.2616903E1,3.3892868E1,1.5896196E1,1.799667E1,2.193372E0,1.3702825E1,1.5808376E1,2.1882942E0],"tree_param":{"num_deleted":"0","num_feature":"6","num_nodes":"11","size_leaf_vector":"1"}},{"base_weights":[1.6312424E-2,3.8618523E-1,-3.653888E-1,7.004938E-2,7.234444E-1,-7.476323E-1,-1.0178821E-1,6.5145224E-1,-1.8132903E-1,5.150305E-2,3.0309257E-1,-4.6354E-1,-4.798108E-2,1.0315382E-1,-4.3150842E-2,4.2150375E-2,1.2457273E-2,1.0212286E-2,-1.631641E-2,-1.0547404E-3,4.400478E-2,-3.457802E-2,-1.2193004E-3,1.7982032E-2,8.56569E-4],"categories":[],"categories_nodes":[],"categories_segments":[],"categories_sizes":[],"default_left":[0,0,0,0,0,0,0,0,0,0,0,0,0,0,0,0,0,0,0,0,0,0,0,0,0],"id":50,"left_children":[1,3,5,7,9,11,13,15,17,-1,19,21,-1,23,-1,-1,-1,-1,-1,-1,-1,-1,-1,-1,-1],"loss_changes":[1.1589815E1,4.3922215E0,3.996799E0,3.4235096E0,2.2725554E0,5.3927994E-1,4.0019116E0,3.3284402E-1,9.9313396E-1,0E0,1.8658276E0,8.760663E-1,0E0,4.4954973E-1,0E0,0E0,0E0,0E0,0E0,0E0,0E0,0E0,0E0,0E0,0E0],"parents":[2147483647,0,0,1,1,2,2,3,3,4,4,5,5,6,6,7,7,8,8,10,10,11,11,13,13],"right_children":[2,4,6,8,10,12,14,16,18,-1,20,22,-1,24,-1,-1,-1,-1,-1,-1,-1,-1,-1,-1,-1],"split_conditions":[-1.8035617E-1,9.6029466E-1,9.6029466E-1,-1.1279148E0,-5.8644813E-1,3.759642E-1,9.996729E-1,-1.3262613E0,-6.7284864E-1,5.150305E-2,6.1083204E-1,1.4575818E-1,-4.798108E-2,-9.5605886E-1,-4.3150842E-2,4.2150375E-2,1.2457273E-2,1.0212286E-2,-1.631641E-2,-1.0547404E-3,4.400478E-2,-3.457802E-2,-1.2193004E-3,1.7982032E-2,8.56569E-4],"split_indices":[5,0,0,5,5,5,5,5,3,0,2,5,0,2,0,0,0,0,0,0,0,0,0,0,0],"split_type":[0,0,0,0,0,0,0,0,0,0,0,0,0,0,0,0,0,0,0,0,0,0,0,0,0],"sum_hessian":[8.009245E1,4.0670517E1,3.942194E1,2.161604E1,1.9054478E1,1.5340567E1,2.4081373E1,6.044482E0,1.5571558E1,1.0179087E1,8.875391E0,7.9171734E0,7.4233937E0,1.96544E1,4.426972E0,3.3526907E0,2.6917913E0,4.1438456E0,1.1427712E1,6.2994857E0,2.5759058E0,4.832997E0,3.084176E0,4.13741E0,1.5516991E1],"tree_param":{"num_deleted":"0","num_feature":"6","num_nodes":"25","size_leaf_vector":"1"}},{"base_weights":[-9.238553E-3,2.3060994E-1,-5.5846846E-1,6.9912446E-1,-2.3388939E-1,6.63724E-2,-8.9312035E-1,5.125708E-2,3.93315E-1,3.9648294E-1,-7.9029167E-1,5.0199014E-1,-3.885821E-2,-3.7649363E-1,-4.9935587E-2,3.5208475E-2,-1.8438315E-2,4.2042967E-2,1.8366888E-3,-1.898866E-2,-5.0694752E-2,1.9379955E-3,4.514688E-2,1.4888356E-2,-3.7660517E-2],"categories":[],"categories_nodes":[],"categories_segments":[],"categories_sizes":[],"default_left":[0,0,0,0,0,0,0,0,0,0,0,0,0,0,0,0,0,0,0,0,0,0,0,0,0],"id":51,"left_children":[1,3,5,7,9,11,13,-1,15,17,19,21,-1,23,-1,-1,-1,-1,-1,-1,-1,-1,-1,-1,-1],"loss_changes":[1.0964417E1,1.2777169E1,5.3484735E0,2.4986649E0,1.0784462E1,3.9739816E0,5.2635E-1,0E0,4.2018867E0,2.3131487E0,1.1012335E0,1.2723998E0,0E0,1.3450031E0,0E0,0E0,0E0,0E0,0E0,0E0,0E0,0E0,0E0,0E0,0E0],"parents":[2147483647,0,0,1,1,2,2,3,3,4,4,5,5,6,6,8,8,9,9,10,10,11,11,13,13],"right_children":[2,4,6,8,10,12,14,-1,16,18,20,22,-1,24,-1,-1,-1,-1,-1,-1,-1,-1,-1,-1,-1],"split_conditions":[2.365593E-1,3.3143446E-1,-1.1936517E0,-4.2592126E-1,-7.6012534E-1,9.208266E-1,3.6115772E-1,5.125708E-2,-2.3598425E-1,-1.2737652E0,-4.6124253E-1,2.9566078E-2,-3.885821E-2,-6.645402E-1,-4.9935587E-2,3.5208475E-2,-1.8438315E-2,4.2042967E-2,1.8366888E-3,-1.898866E-2,-5.0694752E-2,1.9379955E-3,4.514688E-2,1.4888356E-2,-3.7660517E-2],"split_indices":[5,4,4,4,5,5,5,0,5,5,5,2,0,4,0,0,0,0,0,0,0,0,0,0,0],"split_type":[0,0,0,0,0,0,0,0,0,0,0,0,0,0,0,0,0,0,0,0,0,0,0,0,0],"sum_hessian":[8.125513E1,5.6960583E1,2.4294544E1,2.8106258E1,2.8854324E1,8.753057E0,1.5541488E1,1.2465172E1,1.5641087E1,1.3662688E1,1.5191636E1,6.039201E0,2.7138555E0,3.412199E0,1.2129288E1,1.1163475E1,4.477611E0,5.5141025E0,8.148586E0,6.308374E0,8.883262E0,3.3107882E0,2.7284124E0,1.2982028E0,2.1139963E0],"tree_param":{"num_deleted":"0","num_feature":"6","num_nodes":"25","size_leaf_vector":"1"}},{"base_weights":[1.0623586E-2,2.4535827E-1,-5.312206E-1,7.1768594E-1,-1.6126674E-1,1.2484509E-1,-9.012343E-1,5.0874364E-2,3.7929347E-1,4.5565158E-1,-6.745803E-1,6.037099E-1,-3.919175E-2,-4.4095534E-1,-4.9518E-2,3.8344353E-2,-1.2317031E-2,4.6640094E-2,4.5503164E-3,-1.3560395E-2,-5.0029445E-2,-6.5512233E-3,4.582082E-2,-3.9271932E-2,1.174584E-2],"categories":[],"categories_nodes":[],"categories_segments":[],"categories_sizes":[],"default_left":[0,0,0,0,0,0,0,0,0,0,0,0,0,0,0,0,0,0,0,0,0,0,0,0,0],"id":52,"left_children":[1,3,5,7,9,11,13,-1,15,17,19,21,-1,23,-1,-1,-1,-1,-1,-1,-1,-1,-1,-1,-1],"loss_changes":[1.0473741E1,1.11448965E1,6.1563826E0,2.3278675E0,1.0338163E1,4.7621045E0,2.2132778E-1,0E0,3.6227226E0,2.521983E0,2.0552797E0,1.7329044E0,0E0,1.2100586E0,0E0,0E0,0E0,0E0,0E0,0E0,0E0,0E0,0E0,0E0,0E0],"parents":[2147483647,0,0,1,1,2,2,3,3,4,4,5,5,6,6,8,8,9,9,10,10,11,11,13,13],"right_children":[2,4,6,8,10,12,14,-1,16,18,20,22,-1,24,-1,-1,-1,-1,-1,-1,-1,-1,-1,-1,-1],"split_conditions":[2.365593E-1,2.6918605E-1,-1.1936517E0,-4.2592126E-1,-8.2301533E-1,9.996729E-1,3.6115772E-1,5.0874364E-2,-2.6147205E-1,1.2444112E0,-4.6124253E-1,-3.8614345E-1,-3.919175E-2,3.2742015E-1,-4.9518E-2,3.8344353E-2,-1.2317031E-2,4.6640094E-2,4.5503164E-3,-1.3560395E-2,-5.0029445E-2,-6.5512233E-3,4.582082E-2,-3.9271932E-2,1.174584E-2],"split_indices":[5,4,4,4,5,5,5,0,5,4,5,3,0,5,0,0,0,0,0,0,0,0,0,0,0],"split_type":[0,0,0,0,0,0,0,0,0,0,0,0,0,0,0,0,0,0,0,0,0,0,0,0,0],"sum_hessian":[8.032268E1,5.6425514E1,2.3897163E1,2.5749924E1,3.067559E1,8.856475E0,1.5040688E1,1.2589414E1,1.316051E1,1.3982845E1,1.6692743E1,6.0197496E0,2.8367257E0,3.404761E0,1.1635926E1,7.986764E0,5.173746E0,5.382093E0,8.600753E0,8.27989E0,8.412853E0,1.9706095E0,4.04914E0,2.1478953E0,1.2568657E0],"tree_param":{"num_deleted":"0","num_feature":"6","num_nodes":"25","size_leaf_vector":"1"}},{"base_weights":[2.985799E-2,5.0964284E-1,-5.193457E-2,-6.331902E-2,5.6304466E-2,5.4028537E-2,-5.7643592E-2],"categories":[],"categories_nodes":[],"categories_segments":[],"categories_sizes":[],"default_left":[0,0,0,0,0,0,0],"id":53,"left_children":[1,3,-1,5,-1,-1,-1],"loss_changes":[4.0231133E1,1.9184666E1,0E0,3.738103E1,0E0,0E0,0E0],"parents":[2147483647,0,0,1,1,3,3],"right_children":[2,4,-1,6,-1,-1,-1],"split_conditions":[4.9581137E-2,9.6029466E-1,-5.193457E-2,-7.108712E-1,5.6304466E-2,5.4028537E-2,-5.7643592E-2],"split_indices":[1,0,0,1,0,0,0],"split_type":[0,0,0,0,0,0,0],"sum_hessian":[7.6440605E1,5.31148E1,2.3325802E1,2.7993378E1,2.5121422E1,1.3660189E1,1.4333189E1],"tree_param":{"num_deleted":"0","num_feature":"6","num_nodes":"7","size_leaf_vector":"1"}},{"base_weights":[-1.2722188E-2,2.6023224E-1,-4.7830856E-1,7.558394E-1,-1.5392719E-1,2.5488523E-1,-8.3939844E-1,4.4456753E-1,5.0439607E-2,4.3652004E-1,-7.0953417E-1,6.8890214E-1,-3.7229363E-2,-4.9767914E-1,-4.9135044E-2,4.753929E-2,-3.8477809E-3,2.4888793E-4,4.614237E-2,-1.7572004E-2,-4.838044E-2,4.35513E-3,4.760912E-2,1.1556336E-2,-4.238635E-2],"categories":[],"categories_nodes":[],"categories_segments":[],"categories_sizes":[],"default_left":[0,0,0,0,0,0,0,0,0,0,0,0,0,0,0,0,0,0,0,0,0,0,0,0,0],"id":54,"left_children":[1,3,5,7,9,11,13,15,-1,17,19,21,-1,23,-1,-1,-1,-1,-1,-1,-1,-1,-1,-1,-1],"loss_changes":[9.467081E0,9.762086E0,7.500527E0,1.2492542E0,8.98049E0,4.7852983E0,4.253645E-1,3.0972338E0,0E0,2.81454E0,9.5356655E-1,1.0873785E0,0E0,2.1203651E0,0E0,0E0,0E0,0E0,0E0,0E0,0E0,0E0,0E0,0E0,0E0],"parents":[2147483647,0,0,1,1,2,2,3,3,4,4,5,5,6,6,7,7,9,9,10,10,11,11,13,13],"right_children":[2,4,6,8,10,12,14,16,-1,18,20,22,-1,24,-1,-1,-1,-1,-1,-1,-1,-1,-1,-1,-1],"split_conditions":[1.0165264E-1,3.3143446E-1,-1.1936517E0,9.6029466E-1,-7.90555E-1,9.996729E-1,3.6115772E-1,-4.0517178E-1,5.0439607E-2,9.6029466E-1,-4.6124253E-1,9.6029466E-1,-3.7229363E-2,-6.645402E-1,-4.9135044E-2,4.753929E-2,-3.8477809E-3,2.4888793E-4,4.614237E-2,-1.7572004E-2,-4.838044E-2,4.35513E-3,4.760912E-2,1.1556336E-2,-4.238635E-2],"split_indices":[5,4,4,0,5,5,5,4,0,0,5,0,0,4,0,0,0,0,0,0,0,0,0,0,0],"split_type":[0,0,0,0,0,0,0,0,0,0,0,0,0,0,0,0,0,0,0,0,0,0,0,0,0],"sum_hessian":[7.251531E1,4.599271E1,2.6522598E1,2.0562017E1,2.5430695E1,8.848937E0,1.7673662E1,1.0454596E1,1.0107421E1,1.243271E1,1.2997985E1,6.3864017E0,2.4625354E0,6.5433364E0,1.1130326E1,4.887466E0,5.56713E0,7.1226587E0,5.310051E0,6.433245E0,6.56474E0,2.3486807E0,4.0377207E0,2.233298E0,4.3100386E0],"tree_param":{"num_deleted":"0","num_feature":"6","num_nodes":"25","size_leaf_vector":"1"}},{"base_weights":[-1.6526164E-3,4.879867E-1,-5.1525302E-2,-5.0582908E-2,5.561447E-2,5.320791E-2,-5.6623984E-2],"categories":[],"categories_nodes":[],"categories_segments":[],"categories_sizes":[],"default_left":[0,0,0,0,0,0,0],"id":55,"left_children":[1,3,-1,5,-1,-1,-1],"loss_changes":[3.675305E1,1.6677435E1,0E0,3.4365906E1,0E0,0E0,0E0],"parents":[2147483647,0,0,1,1,3,3],"right_children":[2,4,-1,6,-1,-1,-1],"split_conditions":[4.9581137E-2,9.6029466E-1,-5.1525302E-2,-7.108712E-1,5.561447E-2,5.320791E-2,-5.6623984E-2],"split_indices":[1,0,0,1,0,0,0],"split_type":[0,0,0,0,0,0,0],"sum_hessian":[7.095821E1,4.8433865E1,2.2524353E1,2.6495697E1,2.1938168E1,1.305784E1,1.3437857E1],"tree_param":{"num_deleted":"0","num_feature":"6","num_nodes":"7","size_leaf_vector":"1"}},{"base_weights":[1.7610727E-2,4.7246373E-1,-5.1196076E-2,-1.2084995E-1,5.5396523E-2,5.238209E-2,-5.6184795E-2],"categories":[],"categories_nodes":[],"categories_segments":[],"categories_sizes":[],"default_left":[0,0,0,0,0,0,0],"id":56,"left_children":[1,3,-1,5,-1,-1,-1],"loss_changes":[3.3673126E1,1.8776793E1,0E0,3.219883E1,0E0,0E0,0E0],"parents":[2147483647,0,0,1,1,3,3],"right_children":[2,4,-1,6,-1,-1,-1],"split_conditions":[4.9581137E-2,9.6029466E-1,-5.1196076E-2,-7.108712E-1,5.5396523E-2,5.238209E-2,-5.6184795E-2],"split_indices":[1,0,0,1,0,0,0],"split_type":[0,0,0,0,0,0,0],"sum_hessian":[6.905758E1,4.8446594E1,2.0610989E1,2.5473074E1,2.297352E1,1.1744268E1,1.3728805E1],"tree_param":{"num_deleted":"0","num_feature":"6","num_nodes":"7","size_leaf_vector":"1"}},{"base_weights":[-4.9875043E-3,4.467164E-1,-5.099178E-2,5.2270707E-2,6.30877E-2,-1.8101698E-1,2.7494627E-1,1.8962402E-2,-1.6386798E-2,1.812312E-2,-1.08548775E-2],"categories":[],"categories_nodes":[],"categories_segments":[],"categories_sizes":[],"default_left":[0,0,0,0,0,0,0,0,0,0,0],"id":57,"left_children":[1,3,-1,-1,5,7,9,-1,-1,-1,-1],"loss_changes":[3.1252783E1,1.0771486E1,0E0,0E0,1.59205E0,1.3128957E0,7.8329587E-1,0E0,0E0,0E0,0E0],"parents":[2147483647,0,0,1,1,4,4,5,5,6,6],"right_children":[2,4,-1,-1,6,8,10,-1,-1,-1,-1],"split_conditions":[4.9581137E-2,-7.108712E-1,-5.099178E-2,5.2270707E-2,-4.0919057E-1,-9.5955384E-1,-1.1156872E-3,1.8962402E-2,-1.6386798E-2,1.812312E-2,-1.08548775E-2],"split_indices":[1,1,0,0,5,3,1,0,0,0,0],"split_type":[0,0,0,0,0,0,0,0,0,0,0],"sum_hessian":[6.618254E1,4.6185444E1,1.9997093E1,1.7363146E1,2.8822298E1,1.345962E1,1.5362679E1,2.4643447E0,1.09952755E1,1.3266431E1,2.0962477E0],"tree_param":{"num_deleted":"0","num_feature":"6","num_nodes":"11","size_leaf_vector":"1"}},{"base_weights":[-1.4891916E-2,4.4055954E-1,-2.4475917E-1,4.317726E-2,4.9455963E-2,1.7948596E-1,-6.153781E-1,4.4017594E-2,-3.4195802E-1,6.7147374E-1,-5.547928E-1,-4.99015E-2,-3.157937E-1,3.8397793E-2,-4.0579848E-2,4.5799E-2,1.1436151E-2,-3.5562434E-3,-4.2591203E-2,1.37742115E-2,-3.910511E-2],"categories":[],"categories_nodes":[],"categories_segments":[],"categories_sizes":[],"default_left":[0,0,0,0,0,0,0,0,0,0,0,0,0,0,0,0,0,0,0,0,0],"id":58,"left_children":[1,3,5,7,-1,9,11,-1,13,15,17,-1,19,-1,-1,-1,-1,-1,-1,-1,-1],"loss_changes":[6.870791E0,4.7583265E0,6.961651E0,4.756232E0,0E0,7.9918075E0,2.37677E0,0E0,5.9318542E0,1.206645E0,1.2337561E0,0E0,4.25022E0,0E0,0E0,0E0,0E0,0E0,0E0,0E0,0E0],"parents":[2147483647,0,0,1,1,2,2,3,3,5,5,6,6,8,8,9,9,10,10,12,12],"right_children":[2,4,6,8,-1,10,12,-1,14,16,18,-1,20,-1,-1,-1,-1,-1,-1,-1,-1],"split_conditions":[-5.8644813E-1,9.6029466E-1,-4.2592126E-1,3.210597E-1,4.9455963E-2,6.155028E-1,9.6029466E-1,4.4017594E-2,-1.3262613E0,2.365593E-1,9.996729E-1,-4.99015E-2,3.3143446E-1,3.8397793E-2,-4.0579848E-2,4.5799E-2,1.1436151E-2,-3.5562434E-3,-4.2591203E-2,1.37742115E-2,-3.910511E-2],"split_indices":[5,0,4,4,0,5,0,0,5,5,5,0,4,0,0,0,0,0,0,0,0],"split_type":[0,0,0,0,0,0,0,0,0,0,0,0,0,0,0,0,0,0,0,0,0],"sum_hessian":[6.3597786E1,2.1024315E1,4.257347E1,1.281773E1,8.206585E0,2.0091066E1,2.2482403E1,3.6335657E0,9.184164E0,1.2081589E1,8.009478E0,8.84874E0,1.3633664E1,2.5418103E0,6.6423535E0,7.0947313E0,4.986858E0,3.5189238E0,4.4905534E0,6.1917562E0,7.4419074E0],"tree_param":{"num_deleted":"0","num_feature":"6","num_nodes":"21","size_leaf_vector":"1"}},{"base_weights":[2.8995758E-2,5.5120105E-1,-1.7671892E-1,8.859139E-1,2.6093762E-2,7.211215E-2,-7.6955175E-1,4.8789483E-2,1.4762764E-2,-3.777645E-1,3.7626345E-2,4.5720264E-1,-5.046723E-1,-2.7880478E-1,-4.8284724E-2,3.0768612E-2,-4.05076E-2,-4.0829517E-3,4.4380922E-2,1.6855964E-3,-4.5902964E-2,-3.8630743E-2,1.620787E-2],"categories":[],"categories_nodes":[],"categories_segments":[],"categories_sizes":[],"default_left":[0,0,0,0,0,0,0,0,0,0,0,0,0,0,0,0,0,0,0,0,0,0,0],"id":59,"left_children":[1,3,5,7,9,11,13,-1,-1,15,-1,17,19,21,-1,-1,-1,-1,-1,-1,-1,-1,-1],"loss_changes":[6.951073E0,3.1885247E0,6.9188614E0,3.0269718E-1,2.6734307E0,7.7127967E0,1.0630312E0,0E0,0E0,3.0319812E0,0E0,4.8791256E0,3.138237E0,1.8458403E0,0E0,0E0,0E0,0E0,0E0,0E0,0E0,0E0,0E0],"parents":[2147483647,0,0,1,1,2,2,3,3,4,4,5,5,6,6,9,9,11,11,12,12,13,13],"right_children":[2,4,6,8,10,12,14,-1,-1,16,-1,18,20,22,-1,-1,-1,-1,-1,-1,-1,-1,-1],"split_conditions":[-7.33742E-1,1.2444112E0,3.3143446E-1,-7.6748973E-1,9.6029466E-1,3.759642E-1,-4.6124253E-1,4.8789483E-2,1.4762764E-2,-1.3262613E0,3.7626345E-2,9.6029466E-1,-1.1936517E0,9.6029466E-1,-4.8284724E-2,3.0768612E-2,-4.05076E-2,-4.0829517E-3,4.4380922E-2,1.6855964E-3,-4.5902964E-2,-3.8630743E-2,1.620787E-2],"split_indices":[5,4,4,5,0,5,5,0,0,5,0,0,4,0,0,0,0,0,0,0,0,0,0],"split_type":[0,0,0,0,0,0,0,0,0,0,0,0,0,0,0,0,0,0,0,0,0,0,0],"sum_hessian":[6.2799362E1,1.7272867E1,4.5526497E1,1.0129213E1,7.143654E0,3.268564E1,1.28408575E1,8.22556E0,1.9036531E0,4.8996706E0,2.2439833E0,1.9724134E1,1.2961505E1,4.3581796E0,8.482678E0,1.3577965E0,3.5418744E0,9.118479E0,1.0605656E1,6.0285416E0,6.9329634E0,2.2412717E0,2.1169076E0],"tree_param":{"num_deleted":"0","num_feature":"6","num_nodes":"23","size_leaf_vector":"1"}},{"base_weights":[-3.154807E-4,4.5882395E-1,-5.056938E-2,5.171914E-2,9.769551E-2,-1.72484E-1,3.4722865E-1,1.5907101E-2,-1.4618302E-2,6.408246E-3,3.2206364E-2],"categories":[],"categories_nodes":[],"categories_segments":[],"categories_sizes":[],"default_left":[0,0,0,0,0,0,0,0,0,0,0],"id":60,"left_children":[1,3,-1,-1,5,7,9,-1,-1,-1,-1],"loss_changes":[2.9957386E1,9.123291E0,0E0,0E0,1.9728255E0,9.3359935E-1,8.984034E-1,0E0,0E0,0E0,0E0],"parents":[2147483647,0,0,1,1,4,4,5,5,6,6],"right_children":[2,4,-1,-1,6,8,10,-1,-1,-1,-1],"split_conditions":[4.9581137E-2,-7.108712E-1,-5.056938E-2,5.171914E-2,-4.0919057E-1,-9.5955384E-1,3.8338014E-1,1.5907101E-2,-1.4618302E-2,6.408246E-3,3.2206364E-2],"split_indices":[1,1,0,0,5,3,2,0,0,0,0],"split_type":[0,0,0,0,0,0,0,0,0,0,0],"sum_hessian":[6.253268E1,4.3379677E1,1.9153008E1,1.6005747E1,2.7373928E1,1.3291482E1,1.4082446E1,2.2852275E0,1.1006254E1,8.927245E0,5.1552005E0],"tree_param":{"num_deleted":"0","num_feature":"6","num_nodes":"11","size_leaf_vector":"1"}},{"base_weights":[1.2797627E-2,-3.3017555E-1,3.3595225E-1,5.6979644E-1,-5.141126E-1,4.8833054E-2,1.0097736E-1,1.0429865E-3,3.7400607E-2,-3.3410642E-1,-4.384026E-2,2.3195396E-1,-3.7341274E-2,-1.9917937E-2,1.5263932E-2,-2.4974458E-2,1.453757E-2],"categories":[],"categories_nodes":[],"categories_segments":[],"categories_sizes":[],"default_left":[0,0,0,0,0,0,0,0,0,0,0,0,0,0,0,0,0],"id":61,"left_children":[1,3,5,7,9,-1,11,-1,-1,13,-1,15,-1,-1,-1,-1,-1],"loss_changes":[7.043745E0,5.399743E0,4.82469E0,5.4294646E-1,1.4136696E0,0E0,2.9539878E0,0E0,0E0,9.0568066E-1,0E0,1.1109176E0,0E0,0E0,0E0,0E0,0E0],"parents":[2147483647,0,0,1,1,2,2,3,3,4,4,6,6,9,9,11,11],"right_children":[2,4,6,8,10,-1,12,-1,-1,14,-1,16,-1,-1,-1,-1,-1],"split_conditions":[9.6029466E-1,-1.1279148E0,-5.8644813E-1,-6.7284864E-1,2.365593E-1,4.8833054E-2,9.996729E-1,1.0429865E-3,3.7400607E-2,1.4575818E-1,-4.384026E-2,-5.6450915E-1,-3.7341274E-2,-1.9917937E-2,1.5263932E-2,-2.4974458E-2,1.453757E-2],"split_indices":[0,5,5,3,5,0,5,0,0,5,0,5,0,0,0,0,0],"split_type":[0,0,0,0,0,0,0,0,0,0,0,0,0,0,0,0,0],"sum_hessian":[6.155176E1,2.98497E1,3.1702059E1,4.709441E0,2.5140259E1,7.659732E0,2.4042328E1,1.4279978E0,3.2814436E0,1.8085512E1,7.0547476E0,2.1454273E1,2.5880537E0,1.6776585E1,1.3089265E0,1.038626E0,2.0415648E1],"tree_param":{"num_deleted":"0","num_feature":"6","num_nodes":"17","size_leaf_vector":"1"}},{"base_weights":[9.901479E-3,4.5153615E-1,-5.0312843E-2,-1.1444265E-1,5.4125305E-2,5.0819825E-2,-5.4567486E-2],"categories":[],"categories_nodes":[],"categories_segments":[],"categories_sizes":[],"default_left":[0,0,0,0,0,0,0],"id":62,"left_children":[1,3,-1,5,-1,-1,-1],"loss_changes":[2.7657097E1,1.5459457E1,0E0,2.7116306E1,0E0,0E0,0E0],"parents":[2147483647,0,0,1,1,3,3],"right_children":[2,4,-1,6,-1,-1,-1],"split_conditions":[4.9581137E-2,9.6029466E-1,-5.0312843E-2,-7.108712E-1,5.4125305E-2,5.0819825E-2,-5.4567486E-2],"split_indices":[1,0,0,1,0,0,0],"split_type":[0,0,0,0,0,0,0],"sum_hessian":[5.961611E1,4.1942875E1,1.7673237E1,2.2541668E1,1.9401207E1,1.0428971E1,1.2112697E1],"tree_param":{"num_deleted":"0","num_feature":"6","num_nodes":"7","size_leaf_vector":"1"}},{"base_weights":[2.2032147E-2,4.779175E-1,-4.9882676E-2,-4.8616596E-2,5.333231E-2,5.0537445E-2,-5.3572733E-2],"categories":[],"categories_nodes":[],"categories_segments":[],"categories_sizes":[],"default_left":[0,0,0,0,0,0,0],"id":63,"left_children":[1,3,-1,5,-1,-1,-1],"loss_changes":[2.6544268E1,1.22737055E1,0E0,2.467134E1,0E0,0E0,0E0],"parents":[2147483647,0,0,1,1,3,3],"right_children":[2,4,-1,6,-1,-1,-1],"split_conditions":[4.9581137E-2,9.6029466E-1,-4.9882676E-2,-7.108712E-1,5.333231E-2,5.0537445E-2,-5.3572733E-2],"split_indices":[1,0,0,1,0,0,0],"split_type":[0,0,0,0,0,0,0],"sum_hessian":[5.5075993E1,3.8427135E1,1.6648857E1,2.076934E1,1.7657797E1,1.0208301E1,1.0561039E1],"tree_param":{"num_deleted":"0","num_feature":"6","num_nodes":"7","size_leaf_vector":"1"}},{"base_weights":[-9.534181E-3,4.1796964E-1,-4.9693234E-2,-1.345816E-1,5.2875526E-2,4.9965244E-2,-5.3870946E-2],"categories":[],"categories_nodes":[],"categories_segments":[],"categories_sizes":[],"default_left":[0,0,0,0,0,0,0],"id":64,"left_children":[1,3,-1,5,-1,-1,-1],"loss_changes":[2.388487E1,1.4132147E1,0E0,2.4730816E1,0E0,0E0,0E0],"parents":[2147483647,0,0,1,1,3,3],"right_children":[2,4,-1,6,-1,-1,-1],"split_conditions":[4.9581137E-2,9.6029466E-1,-4.9693234E-2,-7.108712E-1,5.2875526E-2,4.9965244E-2,-5.3870946E-2],"split_indices":[1,0,0,1,0,0,0],"split_type":[0,0,0,0,0,0,0],"sum_hessian":[5.477277E1,3.8588715E1,1.6184057E1,2.11259E1,1.7462812E1,9.564016E0,1.1561884E1],"tree_param":{"num_deleted":"0","num_feature":"6","num_nodes":"7","size_leaf_vector":"1"}},{"base_weights":[2.0389378E-2,4.5252827E-1,-4.934276E-2,5.0317217E-2,1.1248554E-1,-1.6014872E-1,3.5425252E-1,-1.9251682E-2,1.1535638E-2,2.0792535E-2,-5.3107915E-3],"categories":[],"categories_nodes":[],"categories_segments":[],"categories_sizes":[],"default_left":[0,0,0,0,0,0,0,0,0,0,0],"id":65,"left_children":[1,3,-1,-1,5,7,9,-1,-1,-1,-1],"loss_changes":[2.3129747E1,6.883483E0,0E0,0E0,1.6482266E0,1.1468487E0,4.1597295E-1,0E0,0E0,0E0,0E0],"parents":[2147483647,0,0,1,1,4,4,5,5,6,6],"right_children":[2,4,-1,-1,6,8,10,-1,-1,-1,-1],"split_conditions":[4.9581137E-2,-7.108712E-1,-4.934276E-2,5.0317217E-2,-4.0919057E-1,5.4564846E-1,1.0473825E0,-1.9251682E-2,1.1535638E-2,2.0792535E-2,-5.3107915E-3],"split_indices":[1,1,0,0,5,3,3,0,0,0,0],"split_type":[0,0,0,0,0,0,0,0,0,0,0],"sum_hessian":[5.1112926E1,3.615293E1,1.4959994E1,1.3007917E1,2.3145016E1,1.1036752E1,1.2108264E1,7.015338E0,4.021414E0,1.0765084E1,1.3431795E0],"tree_param":{"num_deleted":"0","num_feature":"6","num_nodes":"11","size_leaf_vector":"1"}},{"base_weights":[3.0942915E-2,-3.311655E-1,3.8535914E-1,5.0970286E-1,-4.9370196E-1,5.2662724E-1,-3.6607627E-2,3.787798E-2,-1.5153707E-3,-6.361082E-2,-8.08674E-1,8.236036E-1,1.2519461E-1,3.378931E-2,-4.0492505E-2,-1.8242532E-2,-4.7381423E-2,4.7424637E-2,1.2984042E-2,4.5592617E-2,-3.154216E-2],"categories":[],"categories_nodes":[],"categories_segments":[],"categories_sizes":[],"default_left":[0,0,0,0,0,0,0,0,0,0,0,0,0,0,0,0,0,0,0,0,0],"id":66,"left_children":[1,3,5,7,9,11,-1,-1,-1,13,15,17,19,-1,-1,-1,-1,-1,-1,-1,-1],"loss_changes":[6.925578E0,3.9060094E0,4.684541E0,6.68525E-1,3.0527854E0,2.8483038E0,0E0,0E0,0E0,6.4912567E0,4.647684E-1,7.432432E-1,7.5374947E0,0E0,0E0,0E0,0E0,0E0,0E0,0E0,0E0],"parents":[2147483647,0,0,1,1,2,2,3,3,4,4,5,5,9,9,10,10,11,11,12,12],"right_children":[2,4,6,8,10,12,-1,-1,-1,14,16,18,20,-1,-1,-1,-1,-1,-1,-1,-1],"split_conditions":[9.6029466E-1,-1.1279148E0,9.996729E-1,1.4726554E0,-4.0517178E-1,2.4843657E-1,-3.6607627E-2,3.787798E-2,-1.5153707E-3,2.365593E-1,-7.33742E-1,5.196691E-1,-5.8644813E-1,3.378931E-2,-4.0492505E-2,-1.8242532E-2,-4.7381423E-2,4.7424637E-2,1.2984042E-2,4.5592617E-2,-3.154216E-2],"split_indices":[0,5,5,4,4,4,0,0,0,5,5,5,5,0,0,0,0,0,0,0,0],"split_type":[0,0,0,0,0,0,0,0,0,0,0,0,0,0,0,0,0,0,0,0,0],"sum_hessian":[5.196957E1,2.5738277E1,2.6231293E1,3.8232253E0,2.1915052E1,2.3756865E1,2.4744282E0,2.3443444E0,1.4788808E0,9.772609E0,1.2142443E1,1.3050532E1,1.0706332E1,4.9562316E0,4.8163776E0,3.7596684E0,8.382774E0,1.01260195E1,2.924513E0,5.1459136E0,5.560419E0],"tree_param":{"num_deleted":"0","num_feature":"6","num_nodes":"21","size_leaf_vector":"1"}},{"base_weights":[1.2478005E-2,4.6964133E-1,-2.0312245E-1,1.2935233E-1,4.6198588E-2,4.973978E-2,-8.155658E-1,4.0374875E-2,-3.0390695E-1,-4.1458067E-1,4.534406E-1,-1.6598126E-2,-4.4394568E-2,3.3935018E-2,-3.811539E-2,5.6555043E-3,-3.3702374E-2,3.9698873E-2,-1.9000297E-2],"categories":[],"categories_nodes":[],"categories_segments":[],"categories_sizes":[],"default_left":[0,0,0,0,0,0,0,0,0,0,0,0,0,0,0,0,0,0,0],"id":67,"left_children":[1,3,5,7,-1,9,11,-1,13,15,17,-1,-1,-1,-1,-1,-1,-1,-1],"loss_changes":[5.141802E0,2.4638536E0,5.536577E0,3.3940969E0,0E0,5.07304E0,7.0001125E-2,0E0,3.7899806E0,1.8072846E0,4.393863E0,0E0,0E0,0E0,0E0,0E0,0E0,0E0,0E0],"parents":[2147483647,0,0,1,1,2,2,3,3,5,5,6,6,8,8,9,9,10,10],"right_children":[2,4,6,8,-1,10,12,-1,14,16,18,-1,-1,-1,-1,-1,-1,-1,-1],"split_conditions":[-5.8644813E-1,9.6029466E-1,2.4843657E-1,4.4555655E-1,4.6198588E-2,9.6029466E-1,-4.6124253E-1,4.0374875E-2,-1.3262613E0,-1.1210285E0,6.155028E-1,-1.6598126E-2,-4.4394568E-2,3.3935018E-2,-3.811539E-2,5.6555043E-3,-3.3702374E-2,3.9698873E-2,-1.9000297E-2],"split_indices":[5,0,4,4,0,0,5,0,5,4,5,0,0,0,0,0,0,0,0],"split_type":[0,0,0,0,0,0,0,0,0,0,0,0,0,0,0,0,0,0,0],"sum_hessian":[5.0198967E1,1.5709643E1,3.4489323E1,9.716666E0,5.9929776E0,2.5061043E1,9.42828E0,3.4511266E0,6.265539E0,1.1642899E1,1.3418144E1,1.9538352E0,7.474445E0,1.8402593E0,4.42528E0,4.0237207E0,7.6191773E0,9.559568E0,3.8585756E0],"tree_param":{"num_deleted":"0","num_feature":"6","num_nodes":"19","size_leaf_vector":"1"}},{"base_weights":[-3.8146146E-3,-3.2750165E-1,3.0631202E-1,4.6949506E-1,-5.044427E-1,4.6448898E-2,6.35775E-2,3.7698567E-2,-3.407779E-3,-1.4969585E-2,-8.3375335E-1,4.553463E-1,-8.044745E-1,3.569276E-2,-3.8107168E-2,-2.1382118E-2,-4.6855927E-2,3.405907E-2,-3.345969E-2,-1.2603136E-2,-4.3377694E-2],"categories":[],"categories_nodes":[],"categories_segments":[],"categories_sizes":[],"default_left":[0,0,0,0,0,0,0,0,0,0,0,0,0,0,0,0,0,0,0,0,0],"id":68,"left_children":[1,3,5,7,9,-1,11,-1,-1,13,15,17,19,-1,-1,-1,-1,-1,-1,-1,-1],"loss_changes":[5.071098E0,3.721811E0,3.84121E0,8.172926E-1,3.3249006E0,0E0,7.0456247E0,0E0,0E0,5.633316E0,1.18058205E-1,4.0548525E0,6.743908E-3,0E0,0E0,0E0,0E0,0E0,0E0,0E0,0E0],"parents":[2147483647,0,0,1,1,2,2,3,3,4,4,6,6,9,9,10,10,11,11,12,12],"right_children":[2,4,6,8,10,-1,12,-1,-1,14,16,18,20,-1,-1,-1,-1,-1,-1,-1,-1],"split_conditions":[9.6029466E-1,-1.1279148E0,-5.8644813E-1,1.4726554E0,-4.2592126E-1,4.6448898E-2,2.3806183E-1,3.7698567E-2,-3.407779E-3,2.365593E-1,-7.3725116E-1,9.996729E-1,-3.9173898E-1,3.569276E-2,-3.8107168E-2,-2.1382118E-2,-4.6855927E-2,3.405907E-2,-3.345969E-2,-1.2603136E-2,-4.3377694E-2],"split_indices":[0,5,5,4,4,0,4,0,0,5,5,5,5,0,0,0,0,0,0,0,0],"split_type":[0,0,0,0,0,0,0,0,0,0,0,0,0,0,0,0,0,0,0,0,0],"sum_hessian":[4.8517666E1,2.3712402E1,2.4805262E1,4.00759E0,1.9704813E1,6.164603E0,1.864066E1,2.357741E0,1.6498485E0,8.345653E0,1.135916E1,1.317153E1,5.469129E0,4.247275E0,4.0983777E0,3.346868E0,8.012292E0,1.1297062E1,1.8744677E0,1.0725284E0,4.3966007E0],"tree_param":{"num_deleted":"0","num_feature":"6","num_nodes":"21","size_leaf_vector":"1"}},{"base_weights":[3.9740387E-2,4.4783738E-1,-4.8575357E-2,4.9664874E-2,1.13464765E-1,2.5129947E-1,-4.2116144E-1,3.2000598E-2,8.273107E-3,-3.468555E-2,2.4518673E-3],"categories":[],"categories_nodes":[],"categories_segments":[],"categories_sizes":[],"default_left":[0,0,0,0,0,0,0,0,0,0,0],"id":69,"left_children":[1,3,-1,-1,5,7,9,-1,-1,-1,-1],"loss_changes":[2.008081E1,6.1981473E0,0E0,0E0,1.7697909E0,5.1399016E-1,6.750395E-1,0E0,0E0,0E0,0E0],"parents":[2147483647,0,0,1,1,4,4,5,5,6,6],"right_children":[2,4,-1,-1,6,8,10,-1,-1,-1,-1],"split_conditions":[4.9581137E-2,-7.108712E-1,-4.8575357E-2,4.9664874E-2,1.2444112E0,-1.4530201E0,-3.5599345E-1,3.2000598E-2,8.273107E-3,-3.468555E-2,2.4518673E-3],"split_indices":[1,1,0,0,4,4,1,0,0,0,0],"split_type":[0,0,0,0,0,0,0,0,0,0,0],"sum_hessian":[4.6604435E1,3.3601444E1,1.3002988E1,1.2021011E1,2.1580435E1,1.757841E1,4.0020256E0,2.0118203E0,1.5566588E1,2.2325673E0,1.7694585E0],"tree_param":{"num_deleted":"0","num_feature":"6","num_nodes":"11","size_leaf_vector":"1"}},{"base_weights":[-3.146027E-3,4.0602276E-1,-4.866264E-2,-1.13697626E-1,5.170359E-2,4.8629023E-2,-5.1896393E-2],"categories":[],"categories_nodes":[],"categories_segments":[],"categories_sizes":[],"default_left":[0,0,0,0,0,0,0],"id":70,"left_children":[1,3,-1,5,-1,-1,-1],"loss_changes":[1.9071918E1,1.1150072E1,0E0,2.0482224E1,0E0,0E0,0E0],"parents":[2147483647,0,0,1,1,3,3],"right_children":[2,4,-1,6,-1,-1,-1],"split_conditions":[4.9581137E-2,9.6029466E-1,-4.866264E-2,-7.108712E-1,5.170359E-2,4.8629023E-2,-5.1896393E-2],"split_indices":[1,0,0,1,0,0,0],"split_type":[0,0,0,0,0,0,0],"sum_hessian":[4.6052143E1,3.2799522E1,1.3252621E1,1.8395735E1,1.44037895E1,8.4324665E0,9.963267E0],"tree_param":{"num_deleted":"0","num_feature":"6","num_nodes":"7","size_leaf_vector":"1"}},{"base_weights":[5.3086216E-3,3.9636606E-1,-4.827739E-2,-1.3120452E-1,5.1419426E-2,4.8198808E-2,-5.161078E-2],"categories":[],"categories_nodes":[],"categories_segments":[],"categories_sizes":[],"default_left":[0,0,0,0,0,0,0],"id":71,"left_children":[1,3,-1,5,-1,-1,-1],"loss_changes":[1.775015E1,1.1244556E1,0E0,1.9789791E1,0E0,0E0,0E0],"parents":[2147483647,0,0,1,1,3,3],"right_children":[2,4,-1,6,-1,-1,-1],"split_conditions":[4.9581137E-2,9.6029466E-1,-4.827739E-2,-7.108712E-1,5.1419426E-2,4.8198808E-2,-5.161078E-2],"split_indices":[1,0,0,1,0,0,0],"split_type":[0,0,0,0,0,0,0],"sum_hessian":[4.4744648E1,3.2318577E1,1.242607E1,1.804675E1,1.4271829E1,8.114128E0,9.93262E0],"tree_param":{"num_deleted":"0","num_feature":"6","num_nodes":"7","size_leaf_vector":"1"}},{"base_weights":[-3.268974E-3,3.956911E-1,-4.8008822E-2,4.8508037E-2,6.783554E-2,1.7205216E-1,-3.540966E-1,1.6827932E-2,6.0445815E-4,-3.0163182E-2,6.317126E-3],"categories":[],"categories_nodes":[],"categories_segments":[],"categories_sizes":[],"default_left":[0,0,0,0,0,0,0,0,0,0,0],"id":72,"left_children":[1,3,-1,-1,5,7,9,-1,-1,-1,-1],"loss_changes":[1.6678688E1,5.7424536E0,0E0,0E0,9.715383E-1,4.5065165E-1,6.0639864E-1,0E0,0E0,0E0,0E0],"parents":[2147483647,0,0,1,1,4,4,5,5,6,6],"right_children":[2,4,-1,-1,6,8,10,-1,-1,-1,-1],"split_conditions":[4.9581137E-2,-7.108712E-1,-4.8008822E-2,4.8508037E-2,1.2444112E0,-7.152366E-2,1.566028E0,1.6827932E-2,6.0445815E-4,-3.0163182E-2,6.317126E-3],"split_indices":[1,1,0,0,4,2,4,0,0,0,0],"split_type":[0,0,0,0,0,0,0,0,0,0,0],"sum_hessian":[4.1692837E1,2.9838758E1,1.1854079E1,1.0129938E1,1.970882E1,1.627993E1,3.428891E0,7.481724E0,8.798206E0,2.0895503E0,1.3393407E0],"tree_param":{"num_deleted":"0","num_feature":"6","num_nodes":"11","size_leaf_vector":"1"}},{"base_weights":[-2.9079246E-3,3.7224343E-1,-4.772311E-2,4.788949E-2,6.9045946E-2,1.9025233E-1,-3.8709694E-1,2.632579E-2,4.4074105E-3,-2.9846324E-2,2.6080743E-3],"categories":[],"categories_nodes":[],"categories_segments":[],"categories_sizes":[],"default_left":[0,0,0,0,0,0,0,0,0,0,0],"id":73,"left_children":[1,3,-1,-1,5,7,9,-1,-1,-1,-1],"loss_changes":[1.5341158E1,5.4070826E0,0E0,0E0,1.2561951E0,5.568088E-1,4.7538096E-1,0E0,0E0,0E0,0E0],"parents":[2147483647,0,0,1,1,4,4,5,5,6,6],"right_children":[2,4,-1,-1,6,8,10,-1,-1,-1,-1],"split_conditions":[4.9581137E-2,-7.108712E-1,-4.772311E-2,4.788949E-2,1.2444112E0,-1.246259E0,1.566028E0,2.632579E-2,4.4074105E-3,-2.9846324E-2,2.6080743E-3],"split_indices":[1,1,0,0,4,3,4,0,0,0,0],"split_type":[0,0,0,0,0,0,0,0,0,0,0],"sum_hessian":[4.0979935E1,2.982873E1,1.1151207E1,9.439619E0,2.038911E1,1.6569239E1,3.819871E0,2.8911266E0,1.3678112E1,2.3421211E0,1.4777501E0],"tree_param":{"num_deleted":"0","num_feature":"6","num_nodes":"11","size_leaf_vector":"1"}},{"base_weights":[4.2024642E-2,